solver_type L1R_LR
nr_class 2
label 0 1
nr_feature 8300
bias -1
w
0 
2.0941712606865268 
-1.9993885370927091 
0.0053802640217348154 
-0.062927998379369535 
-0.0023915933480472369 
0.0060483229673498392 
-0.0026124177536663244 
0 
-0.26707361719112266 
-0.031505737573442244 
0.14828076392547088 
0.015289772270552515 
-0.14453176967721712 
0.52680858200199876 
0.038883352822656495 
0 
0.00091632152250698462 
0 
-0.063269754801299177 
-0.12844957468265475 
0.16864551799334865 
-2.2614730602650761 
-0.0091159433759170471 
0.0063904948914973256 
0.0028864867463299724 
0.034033456857337059 
0.031439458547855459 
0.035871967138497711 
0.27556383420139891 
0 
0.04139047548742484 
-2.6725285411104587e-05 
0 
0.027954803838398417 
0.00051752744423247995 
-0.043559967107548239 
-0.054234765975994692 
0.2307320517613545 
-0.023894973924313868 
-0.031833212046015885 
0 
-0.06776671196627107 
-0.0023031038513091373 
0.0070131496074488393 
0.055885663731515524 
-0.012286309532757531 
0.021044392980423529 
-0.18147583280633156 
-0.033444650879478552 
0.068636838238745473 
0.020550562996533944 
0.00088514788515373891 
-0.027383317230747758 
0.013298641654239537 
-0.14329356233524643 
0.49122373775109024 
-8.5468896833998099e-05 
0.18991507768038407 
0.1508340922376476 
0.0099965797782534983 
0.032847304840706193 
-0.0013343113027230007 
-0.0021744199314662816 
-0.019058638757246546 
-0.055949874569094289 
0.025316940222574302 
-0.14292932828102445 
0.2143668656126933 
0.0075938318782975377 
0.074135274391068234 
0.074500632132145528 
-0.012440315967929412 
0.054672428803785061 
-0.024182212411989933 
0.034286236459173919 
0 
0.72339051413492605 
-0.0080749235408070358 
0.016861113920446157 
-0.024645618431030566 
0.12733334537908272 
0.11242343539557301 
0.019340969934205181 
0.032274223774407668 
-0.0033659194542577124 
-0.0081958050993313838 
0.0085308089934348682 
0 
-0.12137978485157369 
-0.0020397039838834703 
0.1316491624402632 
0.050836938586730232 
0.0022847630818838395 
-0.0070874853535418687 
-0.014053382299861278 
-0.009691425321658835 
-0.012424046445937918 
0.03841794505048797 
-0.25025120396730216 
0 
0 
0.00057604392270772852 
-0.61765466327041885 
-0.096212700797087325 
-0.0032129895651005691 
0.010597801272042587 
-0.0063023318571835112 
0.001760199715649042 
-0.002816116404628029 
-0.044496370660037809 
-0.024500192073613737 
0.030742092424652284 
-0.11689274207269931 
-0.036119140497497509 
-0.044310089726832258 
0.0023961934403550389 
0.0061390392337343832 
-0.041863850643091852 
0.66368204833030331 
0.020363521345348148 
0.036358621674631428 
-0.063164638132014353 
-0.33802963037996347 
-0.043858695249585328 
-0.0016250118184722338 
0.12155298866979458 
0.028263263735240778 
0.064361771897572168 
0.1101366697816375 
0.32308112546103473 
-0.0012028935408398391 
0.021274929427862084 
-0.0071092313370921161 
0.037702942655904917 
0 
0 
-0.060976585831075708 
0.12301596844033576 
-0.025265464384024799 
-0.0012103845823341285 
0.049424861857497518 
-0.0068529021526515495 
0 
-0.028921283470273063 
0.00194378389886505 
0.02333747858108684 
-0.072911516855397235 
-0.010322977685143637 
0 
-0.17573912498617889 
0 
0.68995217306743495 
-0.022676354376566305 
-0.042026141461626428 
0.017134537066082742 
-0.008318351500826153 
-0.069495216824280531 
0.0079833030593843054 
-0.00046834711933462945 
-0.004188204388619686 
-0.011468855805674152 
0.043512028638015385 
0.011704607630774182 
0.039247855673097354 
0.011235942215477367 
0.030429324466679425 
-0.013224125398166657 
-0.034294895223192193 
-0.0060026500279591367 
0.010756700710913225 
0.26074154398923732 
-1.7017289681966952 
1.0048074471046244 
-0.012189886482451857 
-0.014710588947930059 
-0.00054909499647146716 
0.062710128541202476 
-0.078554115332750377 
0.021448923568686731 
-0.020881488774627838 
-0.012128160053587371 
0.019637778583425167 
-0.012717880481013381 
-0.010164415794230578 
0 
-0.061404413346102027 
-0.36194023520290558 
-0.017837551129462371 
0.02482538294778942 
-0.045701590624714863 
-0.025860305434275924 
-0.0017293459622095692 
-0.00046476779246864327 
0.025610886634631617 
-0.062570951615164933 
0.18843047886007691 
-0.017208864919603981 
0.010459099379962176 
0.22538962297075602 
0.049925801738528792 
0.0011750936735168034 
-0.030781603918058564 
0.033204826244720959 
0.05491131772831695 
0 
-0.1140468463158944 
0.098395988900626175 
-0.065428970366905009 
-0.043213202814031945 
0.21787812331547934 
0.16926723996780263 
0.1146669647556158 
-0.03305802882095428 
0.33329474092117189 
-0.056147625568814766 
-0.003496057344213373 
0 
-0.0052318534919549159 
-0.2781046560289599 
0.0085343586380641021 
0.00053665958625149211 
0.039356430256278961 
-0.40206645130946961 
-0.00055768245134898953 
0.10869797459123938 
-0.00099948295112593831 
-0.075142080357498059 
-0.025950530316914931 
-0.012075904568030638 
-0.011548217728419338 
-0.091514474804035517 
0.038202249300870628 
0.0036503053487388702 
0.088888896159956876 
0.036358484033738606 
0.11511521477067077 
0 
0.063850938346870209 
0.045500447168491359 
0.0027868813272545661 
-0.056245600833215503 
0 
0.001554894966184757 
-0.065266765027918852 
-0.005620635606754975 
-0.10404403584048358 
0.00015833017793237051 
-0.020523707649562774 
0.14221556227577434 
0.12530216041607467 
-0.47134396318513205 
0.013797311790613769 
-0.094703466936427616 
-0.0079498422245755339 
0.041184006159604512 
0.093810853750316878 
0.028379884019362082 
0.0017168575786611704 
-0.015247381078795291 
-0.45803190909201863 
0.046375570471909544 
0 
0.10744695400363399 
-0.0059393451401551448 
-0.064071657861216949 
-0.005198977999383559 
-0.035638539305048705 
0.010625058203751436 
-0.043126635487165922 
-0.036722679612099532 
0.30676220430605805 
0.1547155051806462 
0.032534873398252784 
-0.014019180058782811 
0.045154910926510014 
-0.097400981896491184 
-0.069160173829277125 
0.050022954168599046 
0 
0.14040292095024459 
0 
0.042180895278489505 
-0.058137652229895066 
-0.037865544892815933 
0.039146906486123213 
-0.010468353956625598 
-0.082334478500215455 
-0.028225035286890736 
-0.31980117099822042 
0.049605478574612762 
-0.27853124507503763 
-0.20225913968614898 
-0.04080228349022573 
-0.019600137333548664 
0.083612570478978271 
0.014772239054870425 
-0.13256077381056841 
-0.030661901417157061 
0.62259654701125711 
0.031314111043496136 
0.091403947871431274 
0.0065272907772153665 
0.009573134299023147 
0.0039286818388239554 
0.042115123766516729 
0.0017397761125100824 
0.0066084281459574817 
-0.025872485955555947 
0.0012915339794037882 
-0.002422965236737695 
-0.011767499960867059 
-0.20176699117932487 
0.04812807148539909 
0.0045415333460943532 
-0.029030334035635021 
0.029397906485233882 
0.22120654640064341 
0.025550614876486022 
0.030591997950698835 
-0.11053214280864471 
-0.10334956938701964 
-0.1744671294559173 
-0.16863261466912594 
0 
0 
0 
0 
0 
0 
0 
0 
0 
-0.32528385042510721 
-0.095371134932900975 
0.1408066831565884 
0.071686480866049368 
0.0042997428369555696 
0.016277926707286186 
0.013719266949644159 
-0.094355391704264546 
0.0047290942762903141 
0.0064482932866476968 
-0.016680728775106065 
-0.050488122609441792 
-0.00064210205000146887 
-0.086244360224047412 
0.11562471784963038 
0.069521842887504529 
-0.0020935687881578355 
-0.032292965268084464 
0.025991784115416493 
0.044972814131320649 
0.20792674167783742 
-0.0025059580048897986 
0.10600875843774593 
-0.028391783110886148 
-0.074398315584772987 
-0.007004461439355382 
-0.01058144883785312 
-0.011170137686152801 
0.0096392014337656762 
-0.066872436353769368 
-0.0011939834734615235 
0.0051403612286744158 
0.0066006097123165724 
0.051143802588322074 
0.23921499370602695 
-0.013440940505152656 
-0.0021788877723253218 
-0.021718283237600437 
-0.16525285520705293 
0 
0.21534192217267301 
-0.033458817904059579 
-0.14506143892857554 
-0.02322159144881324 
0.19376123638057691 
-0.0028884391842201765 
0.0023875435405541455 
0.0021955683667402451 
-0.01831468229364535 
0.030629814118519425 
0.16336518371829853 
0.0018386513323034063 
0.0050599995778957494 
-0.012537741452101949 
0.024533771542187121 
-0.29092819431939659 
0.0089036872257895073 
-0.04575670318994042 
-1.1427650069521496 
-0.0064272293773075511 
0.0083034948154466041 
0.0047764299225870792 
-0.042740240858660662 
0.0068052024894414767 
0.019617092060852673 
-0.10949094249908042 
-0.016306511368688381 
0.021658764668780882 
-0.034009544851485218 
-0.049307676397210051 
-0.025711603258045484 
-0.043209816458626128 
0.0044666473643621158 
-0.068201905000819699 
-0.62467092230813104 
0.023441156140696147 
0.03991746774999997 
0 
0 
-0.16326653430693877 
0 
-0.0042934623560805466 
-0.019261519157902404 
0.065879472967420249 
0.057010004834784252 
0.030456186638365149 
-0.058286526416166551 
-0.046728796939133579 
0.0027981039214442314 
0.00528946563471374 
0.1471814394065708 
0.061490408720315498 
0.07117075263988204 
0.032542897838692637 
0.00051534478530119001 
-0.035057370700341511 
0.024297994146344839 
0.69544525040758209 
0.0020991361838062399 
-0.011091699825302573 
-0.00084913244155628085 
0.020421161201602228 
-0.041326651947823749 
-0.027081269399767113 
-0.019479700300437386 
-0.0010366885046030872 
-0.015793831777825583 
-0.023734953656038074 
0.19065925719756188 
-0.05167547154325372 
0.19920325457609112 
-0.0040550877178224531 
0.028385887478987584 
-0.082307023008201502 
0.080330280919474917 
0 
0.03220483588849779 
-0.00081468760176294126 
-0.058468969963262729 
0.019060707422948322 
0.053196272551893464 
-0.0098488736561746053 
-0.053554773576550099 
0.030300800404638072 
-0.0036353776801194781 
0.00039808708898115414 
0.00093649628699605722 
0.011970988840621324 
-0.01294930863994931 
-0.010622176228784062 
0.019884145511929515 
0.018347424841638399 
-0.0096198690002677664 
0.0052500149152998454 
0.0094187555348641157 
0.18053402127249071 
-0.24144431630866342 
-0.048009215670933726 
-1.3225589925296506 
0 
0.078651495862907761 
0.086977376868738632 
-0.41771241210917609 
0.0049195178786889757 
-0.10950317835833345 
-0.029845084873023255 
0.10009602644089236 
-0.035348350916441854 
-0.0041201459317304571 
-0.011426580141618237 
0.0075775583446041715 
-0.022215785300589645 
0.016242216901547393 
0.099370331153059849 
0.15310661032944242 
0 
-0.12319095549631588 
0.17837382359591647 
0.060859415432670469 
-0.10763706712394396 
0.036901769971614339 
0.1467735625356745 
0.0044027807438346486 
0.012899923723877688 
-0.066160002074058755 
-0.068763641997255431 
0.010324018859783724 
-0.12416249306452604 
0.035852084683462793 
-0.066429699574360707 
-0.039711692251089628 
-0.078048922714168856 
-0.016923258954047941 
0.024229021663610739 
-0.14348157318052057 
-0.020572934460461378 
0.054778933010590766 
0.0025008789123002642 
-0.00096259047250689086 
0 
0.32644931539412714 
-0.053786550540685055 
0.03539600880146819 
0.16985987919031725 
-0.00052610970349732916 
-0.022217205928244957 
0.16532074052868162 
0.039074470204000365 
0.25417357407446595 
-0.053356806906390067 
0.016395062281922678 
0.0067651704101118881 
0.00071832349129944458 
-0.044490278965726368 
0 
0.048723224610665028 
-0.0044541126277040273 
-0.097204359286935771 
-0.036795304153756231 
0.00070904944134170798 
0.067115299363290137 
0.0085524312034398701 
-0.001198044113984061 
-0.0014928987154252146 
0.037047835285195715 
-1.3696556057982845 
0.0012049118077443041 
-0.094495313663870206 
0.10229253081143463 
0.043269443587514042 
0.34716672957689648 
0.00057004705261316964 
0.0083716703457499195 
0.28384279059052864 
-0.023525297380032117 
-0.22695427815566549 
0.0020429690950343037 
0.0070829637247798718 
0.0079159445831035596 
0 
0.031072578641848692 
-0.028571816554138159 
-0.068167021796422964 
0.0089549688370244677 
-0.24491469963307483 
0.0079958943749626199 
0.13611811320121042 
-0.0030330119508180089 
0.0027046029954509924 
0.0096979127078183798 
0.018052386743021211 
-0.019108213068938437 
-0.0057766910709842216 
-0.18362939612122481 
0 
-0.01233551901424506 
-0.055146070224732724 
-0.19015627912213307 
0.16451485781495453 
-0.022831050967755204 
-0.12273210210737961 
0 
0.041879501660278894 
-0.00040362891715591627 
-0.075761994821831199 
-0.054567513611332844 
-1.3018395756044217 
-0.15774860622921724 
0.03817164751470159 
-0.013826381456017577 
0.040507628511232616 
0.0055399726701661793 
-0.022943944875999135 
-0.14749357612747183 
-0.12677828694486504 
-0.0025262683819548592 
0.0024465469543927037 
0.017417872915542407 
-0.00086650808251387355 
0.0070817358660550424 
0.24867384093757086 
-0.23379891464175367 
-0.03772844147120967 
0.037706362364158932 
0.021240440712820659 
-0.074462343822818203 
0 
-0.0047914185675077877 
-0.0042603354503027808 
0.0061438136985977072 
0.00055831568155249151 
0.076630273582299679 
0.0078312867462543082 
0.030755662876776772 
-0.0028951688745564412 
0 
-0.0097386400332370952 
-0.26724959457959829 
0.21748769981173552 
-0.32988727297244613 
-0.14355810251966611 
-0.025478314074440785 
0.0043491738005373964 
-0.2233502107758219 
0.002483553523762813 
0 
0 
0 
0.016993346998610249 
-0.015585697558993736 
0.053789986491925457 
0.1218021946986943 
-0.11234158641035938 
0.0010198212225911493 
0 
0 
0.047206283158880244 
-0.01019267035081221 
-0.028596228545325276 
0.17589775496154314 
-0.093566524806681581 
0.11277041753209044 
0.2768247956465209 
-0.40217388143978161 
0.01253146870559364 
-0.00037425705135747694 
-0.029822603335822626 
0.21096989197570776 
-0.20490410969967943 
0 
0.0044778780747112331 
0.030782989897247925 
0.090755843588745139 
0.032875001223360095 
-0.0089596081717745555 
0.02207776276527253 
0.012381729138539658 
0.077211901224975621 
0.0099065581672361999 
-0.11262788149789621 
0.1389719694768024 
0.00095948612782157554 
0.011721717413782716 
-0.023775937518430539 
-0.00020679251926675651 
0.244160236138454 
0.0034001473404368346 
0.015749996888464152 
-0.34565196737572046 
-0.25986099886715885 
0.096443285776615109 
-0.060914334733432732 
-0.0026245865812757506 
0.0094216410717799376 
0.022007686724929771 
-0.029999683455459017 
-0.19785157847030499 
-0.013104160631868856 
-0.28381672045576711 
-0.38211226763230904 
-0.020746879485744739 
-0.066635753198103997 
-0.012704830878327345 
-0.0086122210832524238 
0.020643525936076164 
0.087417879369230594 
0.05120878326154691 
-0.025643418771189933 
-0.030624148471808388 
-0.034093098387277088 
0.019383849091700579 
-0.074927227670552654 
0.13578360582863341 
-0.05849722476455442 
-0.0002529454904807177 
0.02541731917953715 
-0.00074732772407427287 
0.3795015887594968 
0.0018180653927610502 
-0.20051813575710831 
-0.047788589984174859 
0.0020555322927555781 
0.024545402731204209 
-0.14886416172054667 
-0.011013897429039066 
-0.0096502142776763583 
0.54856977261164164 
-0.053602885099110188 
-0.013387913921988296 
-0.0064250209099703751 
0.061430806497123895 
0.022459512811492444 
0.0048016281466742756 
-0.16683057435440929 
0.010250402680910788 
0.0049048233997736473 
-0.025032567006107315 
0.017391838802498241 
0.0014964217303568075 
0.083713369906003698 
-0.16298699168127112 
0.019132062322176204 
-0.1778112087864237 
0.0004487820779701464 
0.058898895895032825 
-0.011736750603777693 
-0.028982529109057031 
0.049280570127245571 
-0.071911722691924168 
-0.0019284326463184487 
0.026850802960886537 
-0.019108078068291831 
-0.0081558797169527068 
-0.020388688788696818 
0.037478307274856695 
-0.0020980360755477687 
0.18071875242532251 
-0.010815264925054443 
-0.024570936782908122 
0.17455257790095818 
-0.015049653106331185 
0 
-0.011051358729845433 
0.03723991173208073 
-0.17528473279368501 
0 
0.016015332035319626 
-0.0034056705172511624 
0.13285581558240228 
-0.055739062277051638 
0.9715862452861268 
-0.015398808887322746 
0.030099417204600347 
0.042128792100085972 
-0.00036942074727180105 
0.046446780090785095 
0.035499743504222719 
0.027701967410058065 
0.0078580324714354506 
0.010007124458753406 
-0.0077595296136091438 
0 
-0.0047347062697407748 
0.05529183745511651 
-0.18843348539410193 
-0.033254272889965478 
-0.10602149001207475 
0.3398663742615784 
0.011429971887564526 
0.1080323999107361 
0.070059438973309962 
0.0074641127646882608 
0.00050009065865065378 
-0.057664951126378323 
0.049062089117671938 
-0.011608367507239439 
-0.17361035700742189 
-0.089180802068735715 
-0.010142587371281679 
0 
0.00033377087934907744 
0 
-0.06697229659734788 
0.033679680924610891 
-0.38479613328171303 
0.014211632392143474 
0.08000677104969367 
0.67899204708722305 
0.0034676270686506373 
0 
0.25028869959125055 
-0.00021430598390107295 
-0.52917636886471131 
0.0009753487922835683 
-0.0037687671071949566 
-0.029709892348599998 
0.11798386437550344 
-0.0029227189301584576 
0.014058592341865466 
0.031222876184408482 
-0.0027919136177217974 
0.03302266406016649 
0.16376397067518653 
-0.0074984928568520501 
0 
-0.046586324592237841 
-0.039387700273594686 
-0.16699481768461572 
-3.3496678866404759 
0.20410691114155244 
-0.11661106218826195 
-0.015555921671330337 
0.041951542589832871 
0 
0.0036077241856657654 
-0.01346167076822264 
-0.001072768067909268 
0.073771624207919911 
-0.10704430633858539 
-0.014151304549904625 
-0.016437439352416455 
-0.21666719070522539 
0.002954697181011187 
0.27768918321098957 
0 
-0.11449097878590213 
-0.053504998623143278 
-0.010277072486751583 
0.0013488384458050617 
0.3314131177893046 
-0.0010495705734127137 
0 
-0.6859291671160217 
0 
0 
-0.28651605719736661 
-0.00065787024772055529 
0.0074849414561862903 
-0.0099031899587470051 
0.092727767607419798 
0.025116692689742669 
0.58115918700457947 
-0.0070026850647004583 
-0.0016582840645580411 
0 
-0.030265826443573125 
-0.095383788216809706 
0.085582174594450056 
0.013433778531324613 
0.011376872286705201 
0.26565219713877281 
0.15372122412910802 
-0.0083788443232062221 
0 
0.018379028899379313 
-0.0004306628615990515 
0.050473125194822749 
-0.0099184414303888253 
0.068017198650679067 
-0.08656267878434043 
0.052078850594575773 
0.083189559981301411 
0.16040298913879913 
0.012257123372448889 
0.055339424194389183 
0 
0.061810625972320087 
0.018539440584655432 
0.10116578282083249 
0 
-0.013004418965927408 
0.0089435920692989869 
-0.056376852098591584 
0.017031996148289562 
0.10796744783965437 
-0.0040959708117325466 
0.14682095647787735 
-0.012263147026146573 
-0.055869333055337866 
0.11282707056909108 
0.089498899203573012 
-0.012470478539012734 
-0.021635037803335339 
-0.013942241525423921 
0.0015540525132264318 
-0.0067360191528334397 
-0.0062222003474052094 
0.096425051561711828 
0.0070296858728983013 
-0.016227941843210365 
0.0039538867989314004 
-0.00022497314014503249 
-4.5699606405823177e-05 
0.011611423922237334 
-0.00070828528111072434 
0.0049333400702966709 
-0.063633440942998665 
0.025966849607591744 
-0.0045224175719132797 
-0.014100220213743277 
0.13189381244556575 
0.0050015716852981921 
-0.018353037082918099 
0.028500088289326223 
-0.014724533590049693 
0.032413928374514511 
-0.012080704961782405 
-0.012333044157912639 
0.018287732874139907 
0.022817927939332072 
0.077834648130553408 
0.39446982536750341 
0.0031478939850891549 
-0.0012472001785511137 
-0.29376190971281935 
0.014836727553362223 
0.23952318460036676 
-0.019561914415817616 
-0.0029922755864196064 
-0.00046786495143981606 
0.037042083858610964 
-0.0073036089723166418 
-0.087397672761042128 
0.0046025213861475411 
-0.28689626848928423 
-0.054306273778196842 
0.019712582817233835 
-0.092310476580884704 
-0.0024801492347038016 
-0.00064604623762114742 
0.0008945332029454483 
-0.0071267879073552221 
0.011595282127597833 
0.070122200187881303 
-0.13085819501185567 
-0.33877723098859291 
-0.071258928483036402 
-0.04346425563176981 
-0.0070353290453889685 
-0.0050122927036050941 
-0.022099506104211478 
-0.091273780724504289 
0.0047902398778763063 
0.17426118908914839 
0.0033555490419759026 
-0.0037119154813237219 
-0.12539874333207135 
-0.1707124329174729 
-0.0068273743803545072 
0.022616900594012553 
-0.0187168984966791 
0.013978637001558403 
0.0011791212809809583 
-0.098247972145311391 
0.05925768763427823 
-0.001189097640857825 
0 
-0.042487656226725727 
0.0028760214947063682 
-0.0018934748676065296 
-0.0096458387773191573 
0.97482838039174236 
0.10899027955004553 
-0.11406186822364472 
0.00018114267171842998 
-0.02003754566533459 
-4.0203083396504147e-05 
0.0085469789572706501 
0.019807586522432974 
0 
-0.063211680707545431 
-0.037329096658283309 
0.08967316032204134 
-0.15116009403499447 
0.0065777369521364242 
0.013174164518169548 
0.10617476364299082 
-0.098758610074931918 
-0.0013549617719499809 
-0.0009789124243808193 
-0.0036579418310816831 
0.21114919042762237 
-0.0051347559826810116 
-0.17286219370480482 
0.059061385507587993 
0.0085900636896672575 
0.0077763482208014646 
0.22816400998558387 
-0.0063759514014645954 
-0.042803048789875932 
0.00094624532152402948 
0.0017830423466821173 
0.0021414259787518111 
0.062198550808548872 
-0.0066808206555153803 
0.025982949134662977 
0.012347064695863247 
0.071362482110371064 
0.0095351182775173168 
0.013126752294031905 
-0.014873328355602353 
0.014236513155702388 
0.034280147758682877 
-0.1795461929460761 
0.069965820529859321 
-0.074806386936812103 
0.24949354453615574 
0.060333406994374547 
0 
0 
8.1428896635621409e-06 
0.0026582922334551593 
-0.024636972243562864 
0.0034542952485742502 
-0.10720806166035834 
0.01060900728894513 
-0.056609276655221398 
-0.05236577936811769 
-0.01189934472270858 
0.021021235144554014 
0.019604434805211207 
-0.029698670762273234 
-0.044012819869884583 
0.025019747870045336 
0.034112501251392334 
0.0027769622171672555 
0.0036250612706831015 
-0.098656663427017163 
-0.0035320066748586909 
0.030367449548205933 
-0.02715005050268678 
0.019366353712869329 
0.014349601621532412 
-0.013890039668480389 
-0.022289456853108583 
0.08205018059251748 
0.0086244365515422937 
0.010261350191072313 
-0.0069177651615583945 
-0.0020208168623163068 
0.10228172458886467 
-0.015208528428096873 
0.055611034531761666 
0.014663823259840877 
-0.0016343974551544039 
-0.0085570060403164262 
-0.018810995947424407 
-0.018756155339535091 
-0.017494473883638624 
-0.027157623626093128 
-0.019734888823159345 
0.021422247128672411 
-0.065352046994450741 
-0.061995525115131178 
0.086085209258259424 
-0.035089170229727573 
0.20339568108160438 
0.021068408052005355 
-0.0069657025897407396 
-0.010008878657839764 
-0.00062654917007972852 
0.0057496794242942731 
0.12154899943751515 
0.019908785505637905 
0.0066586081689177304 
-0.054727664467399191 
0.044026977571097477 
0.0068054672458012829 
0.0071536384445674292 
-0.021172790969254708 
0.28307507752616179 
0.19255787270924751 
-0.30612482212771597 
-0.13896753624520986 
-0.037017970139860842 
0.026774342171087963 
0.026077693105611838 
0.16542635077985868 
0.017054392485002123 
-0.11114115362292834 
-0.098334302663318746 
0.041324916402404058 
0.010185387722872214 
0.01242794451450884 
-0.049665860638660332 
-0.18165063519811889 
-0.015053529397427993 
0.017282789849420596 
-0.0047799769381274802 
0.04215884049938301 
-0.53900298684252479 
-0.011497276334129131 
-0.011454766951962847 
0.025995987833775647 
-0.12217220436992983 
-0.0034723161535916277 
-0.0092455551313891104 
0.029319269728797094 
0.0058781880421360806 
0 
0.38133309793061188 
0.0087142931263053842 
0.030823206386765271 
0.008812989710502114 
0.031466782089535544 
0.013588956757999832 
-0.012847599453300997 
0.088883843112726152 
0.0033065641254418684 
0.014945505559903888 
0.0094905808871631123 
0.0071764003117567509 
0.0063819026850153796 
-0.030002370001473138 
0.00055775280686004569 
0.069809278728700519 
-0.04204774256229396 
0.015738865812588161 
-0.0066110376427393897 
-0.016046315623451646 
0.042229950920193556 
0.023688507851628973 
0.051382003795324385 
0.0047484574761435978 
0.017418579471254143 
0.0031755261666220119 
0.30940190940775619 
-0.054941965838047988 
-0.24006788212138649 
-0.069123694747097147 
-0.12520980081043251 
0.12205051032345607 
-0.019172497031049604 
-0.0002515750563862806 
0.014837870415659303 
0.032956826344233379 
-0.07052416206675971 
-0.0043269386156182497 
-0.013640432416319473 
0.039470385140476454 
-0.014533265759774788 
0.0073588752058525459 
-0.21916763711713999 
0.07009204253476721 
0.001289696634176443 
3.4199722208191663e-05 
-0.0074215536481632028 
-0.012916301719473174 
-0.018090156539176439 
-0.063144260906097871 
-0.014141407851575711 
0.059016374446782677 
0.038907615924927322 
0.0034375171965359426 
0.045236355074495554 
0.0061614823760930797 
1.0356384388431519 
0.035934528505026861 
-0.0057301078804651052 
0.010251334641413871 
0.10409038573408827 
0.077067029194095124 
0.0081707176164990333 
-0.0096746582130584798 
-0.0027939639553359371 
0.024895042512361736 
0.0030089709752695619 
-0.013227754552123622 
0.0014100892312100322 
-0.0096908839396848238 
-0.062423407873790707 
-0.11799713348932997 
0.014847660470370446 
-0.058356266481295736 
0 
-0.014342608019538161 
0.17319571349154167 
0.13374328718747514 
-0.0050001920155536951 
-0.0037806706465530011 
0.0075289739132766561 
0.14572946067299594 
-0.0093232292628831429 
0.069030185584426557 
0.01797590325285886 
-0.00017598310984837676 
0 
0 
-0.048523947881092516 
0.00044367037727673206 
0.010445890945640825 
0.037456738551065891 
0.018090596747838944 
-0.0882589194474247 
-0.23435382287490653 
0 
-0.0021667364644004173 
-0.076995105842278005 
-0.005388519760937514 
7.9669840078649235e-05 
-0.026394494456473877 
-0.0049687526727874697 
0.24522943909116807 
-0.01383453281964352 
0 
0.18630348693976989 
0.0067111585280893232 
0.013041061026128613 
-0.0034432040645997683 
-0.054094235497018313 
-0.063103359382700397 
-0.084236712801281879 
-0.012462068546770833 
-0.020057418778680489 
-0.029624616643528161 
0.033247767851773163 
-0.0087465762748532294 
-0.017924193368578235 
-0.0031040462955171356 
-0.0049845188220456766 
-0.026790717386373564 
-0.062797183100401444 
-0.016617218752784692 
-0.012496764714481134 
-0.012895545353386063 
0.12506125289901135 
0.019263748292217053 
0.0078081891976832466 
-0.0027610614880299498 
-0.0012500687165149238 
-0.012153273439668686 
-0.084177715093973968 
0.020649408381428092 
-0.0011589614351849549 
0.0025660455502877228 
0.0096301920957401199 
0.00051806248423867511 
0.0046046041134523343 
0.0080175203827341016 
0.0025253054265041959 
0.028897856731975022 
0.10284285013502042 
-0.0409002812454764 
-0.0018732896451419039 
0.016990259086961453 
-0.025878534908819001 
-0.021269739168423556 
-0.78564649411694476 
0.013706667687926184 
-0.13561515730376281 
-0.38195080465413289 
-0.053580854876144238 
-0.037433838868815322 
-0.013698195930183985 
-0.0029645129117030085 
0.01246720524301153 
0.022801714388635402 
0 
-0.062531191419789231 
0 
0.0074442853714216453 
0.051308385671814047 
0.011598376186862359 
0.013132150533949559 
0.088611286288029972 
0.047553883648770973 
-0.018951806600290097 
0.1701867985185361 
0.0064653007435541473 
0.013018880794494619 
0.0026166757249917825 
0.0047507268047226915 
0.039318696410128626 
0.00045070479438425902 
-0.028736716687980727 
0.012894139701943291 
-0.0084802072289228043 
0 
0.083246685591017347 
-0.077756692787423615 
-0.096450817762312596 
-0.0043151627054970375 
-0.0086687233780901561 
-0.0060816068041147173 
0.44946857382126759 
-0.017989210282756251 
0.0050109304286357452 
0.037853427761286099 
0.0072516393132467999 
-0.0020158408681594316 
-0.039981893005036268 
-0.011025761356792115 
0.030471214988339643 
-0.020375077533747954 
-0.002551389595943066 
0.013513767613781402 
0 
-0.059972035081496532 
0.0067334205265480764 
0.049474068236017417 
-0.27659533384013502 
0.57781567828374114 
-0.2233376846584029 
0.0067387264483700473 
0.13988008429204343 
-0.084538977959025929 
-0.15363188920935422 
-0.012315855659617778 
-0.048706667464279083 
0.059854517382279947 
-0.058785510181768558 
0.00065332443375169238 
-0.0062158024572850183 
-0.03969310056653496 
0.0025248413214140168 
0.078154042485877706 
0.0047010014678483293 
0.0065802196830729142 
-0.0072842177973164099 
0.21013141850869854 
0.0022101853663800339 
0.016973752522907587 
-0.00034424731763703354 
-0.12462333450585522 
0.14307014179287025 
-0.0030821715025594562 
-0.00011230632232595826 
-0.0019816102958510173 
0 
-0.015285574577283858 
0.1337503485292782 
0.022530798174989465 
-0.12949614658616049 
0.10102760089222473 
0.0073801397966551663 
-0.052461919930462945 
0.14904090046715107 
-0.072310254411829533 
0.042654434134068685 
-0.0030753091522969268 
-0.22796904981961547 
-0.068238588563947392 
-0.036711655860203002 
-0.014613804008081543 
0.0021904190616466564 
0.0047503708728306154 
-0.063074132553917583 
-0.030416634898998242 
-0.02876314811485331 
0.11842032713928008 
0.0072365580862572302 
0.021615503099907223 
-0.0040718312914174238 
0 
-0.0068287239333170158 
0.041351935030363898 
0.019841713698070418 
0.057868159761286127 
0.1202867527715963 
-0.081166166996723105 
-2.8902268233500998e-05 
0.16249988225780143 
-0.014387098315304592 
0.19285917272688413 
0.020654192186797843 
-0.0030345431280859436 
0.14418430739539478 
0.012584169789399097 
0 
-0.069180672083880956 
-0.058409595150866675 
0.0060326168275021737 
-0.016624409730831076 
0.0032318862854377804 
-0.0060491167701200886 
0.012985354789150588 
0.011683336944892849 
-0.013455366779574644 
0.0034635395367031739 
-0.0064494208377605111 
0.069850515413888439 
0.022565678071244637 
-0.0080171188552025929 
0.015608258242563662 
0.1858919923193213 
-1.5961236503829581 
-0.0041423775309095291 
0.012717058187001092 
0.0012893750162645879 
0.093440566098508149 
-0.043949978806723064 
0.21910101890215039 
0.0012596872265916083 
0.20295341242366888 
-0.056001014731893534 
-0.048662595532131731 
0.073855387233136116 
-0.11884771998262281 
0 
0.059142756724006866 
0.032427072935778824 
-0.086905838188443524 
0.018164160083668102 
0 
-0.0017427738713848501 
0.17592403943096419 
0.41178986537887308 
0 
0.11222264427149939 
0.00020769692714027975 
-8.1907272817996696e-05 
-0.0077351962160704165 
0.070099810539455853 
-0.0058506852881662508 
-0.003435229309373164 
0.030440962910507983 
0.010130267396259829 
-0.041413391067883928 
-0.060047626247080141 
0 
0.042939386713420929 
0.015702318791794387 
-0.071074772457881158 
0.040846891640699691 
0.10192164776224925 
0.19319740936543828 
-0.024060115093308049 
0.0013749394885249275 
-0.020850213414268425 
-0.093488399456253979 
-0.0025017593156232798 
0.030498082360801503 
-0.19207767747501731 
-0.037252361760325745 
-0.011950196202330721 
-0.0023487673035574369 
-0.059954742948991398 
0 
0.002279872835772898 
0.031331137590634925 
-0.10039858987954708 
-0.0024063316865353722 
-0.27241493100929037 
0 
0.61616496031367207 
0.015493171024387589 
-0.20783408742146775 
0.0026199078882999322 
-0.00059595265177221483 
0 
-0.43925256933053791 
-0.10849668524826128 
-0.024905213198637553 
-0.0054208374465255036 
-0.022519831818296445 
0.10198608694017992 
0 
0.0073561968745880892 
-0.068696768644335993 
0 
0 
0.025225499137232019 
0 
0.20167707804670543 
0.014262346854323326 
0.053023524074545636 
-0.0016525779431735077 
0.18284701040613771 
0.021581579038194375 
-0.18076554780806642 
-0.022320697633693227 
-0.10887141114331356 
0.20259828987354872 
0.17567310716007198 
-0.039738332241583921 
0.0064277113955745644 
0.05530799937493449 
-0.31792972107402628 
0.029880827247178065 
-0.043594463720733612 
-0.20189640603061731 
-0.0036761424308047884 
0.013786844356845292 
-0.10175328073383502 
0 
-0.10123822168204258 
0.081198921864244378 
0.011709099732849424 
-0.24783653674932432 
0.06582833638971225 
3.0298292873138211 
-0.16204624939369458 
-0.043273454773213649 
0.041649522345031637 
-0.008958518255836892 
-0.010163012032616544 
0.0090792530018704801 
-0.0063971631484215762 
0.043108347474833983 
-0.69856889459582083 
-0.12498438597981226 
0.012113544912035788 
-0.00059910069431376987 
0.32406154876220716 
0.30919764860158511 
0 
-0.038798330515366672 
-0.046634069414808299 
0 
0.0081460594250516404 
-0.21912023370317976 
-0.00021894703896440092 
0.32211327352201752 
-0.001845399264150312 
0.010364384474350043 
-0.0011321396641424748 
-0.001324967971497095 
0.059825861772878949 
-0.28885046210603749 
0.040928306920721261 
-0.0048270955767143308 
-0.02248587237804256 
-0.020231810406548714 
0.067090226826180877 
0.04992406737306937 
0.14032388268742241 
-0.01193905956970159 
0.043457620370521102 
-0.014064577251101282 
-0.0066781243483185707 
0.0009843051916552264 
0.60149487992474016 
-0.011055686614456037 
-0.011007061423309532 
0 
-0.038669223001646671 
-0.083090037183116458 
0.064444712692717301 
-0.023815047512890573 
-0.028083786673403152 
-0.0017651614235715107 
0.00078445579655464243 
-0.025575596884557506 
0.21573107012467424 
-0.0031855175030961794 
0.091096585181551767 
0.10573837618901485 
0 
0 
-0.085328545101622688 
-0.027813111463535142 
-0.52039159699280846 
-0.11051032134190902 
-0.051709976181330941 
-0.0035262710668317824 
0.036473186768402679 
-0.041355074600757873 
0.038008315133609125 
-0.055520643022199001 
0.092429131119654923 
0.0039551439551756195 
0.21919211080716411 
0.0076802924332808973 
0.1639465255031558 
-0.011259388377967798 
0.58455216201650084 
0.083979323214306872 
0.080758604186095498 
0.0077592649434529704 
-0.051156692946938628 
-0.037602940871489784 
0.00057764256686432583 
-0.011904894342945685 
0.021456821182084404 
-0.030150808590341263 
-0.046673798260833725 
-0.016540173270070138 
0.15612276836902564 
-0.044404484080444756 
0.017542413063443736 
0.077764504009685431 
0.13462142312761766 
0.022640652891922401 
-0.080770514946844507 
0.018947724358358092 
0.065496234873255066 
0 
0.050859567933640201 
-0.014886604437203013 
0.085871145261816842 
-0.045916449231997336 
-0.13542236116519452 
0.025883625778959821 
-0.045134456279313423 
-0.0028955284569252924 
0.0025643538921556216 
0.9686184068728444 
-0.061420987280941169 
-0.0059176082988878689 
-0.009490491411945556 
0.00230915149857431 
-0.012254692993451121 
0 
-0.032075846187195695 
0.0078491747056210794 
-0.36267894969362569 
0 
0.089932716750090513 
-0.019711931797287318 
0.017558151271639906 
-0.19048415144278499 
0 
-0.049232703326688103 
0.16339376106963491 
-0.012766266822200093 
0.038713626240968066 
-0.0040775334462308313 
0.50363409560581929 
0.00272490271237606 
-0.02781438639471832 
-0.075062360984860493 
0.11165603103477134 
0.18701575352773747 
0.024726573997260831 
-0.049096280841217525 
-0.0016764658755793014 
-0.00058914925353211617 
-0.2274410924459882 
-0.00042384829685718141 
0.61299298481637021 
-0.044022042272679446 
-0.0034279491846884048 
0.10775085231311543 
0.08919147210641927 
-0.042829527159381264 
0.13513591110179335 
0.33557978231626984 
0.001008868433093002 
0 
0.036794147625825377 
0.00072444838084576686 
0.20444444196258979 
-0.0079257995558586272 
-0.070174552793744738 
0.055252488780915252 
-0.12854187268260012 
-0.044465359206668234 
0 
-0.036486856577037534 
0.5515931163931046 
-0.001300536994811152 
-0.45567728810276747 
0.17062963216394239 
-0.042999561448081397 
-0.23483220187353354 
0 
0.0010782989587017314 
-0.13558866210642001 
0.088702077374212929 
-0.0027554979624736776 
-0.22905035940629592 
0 
0.031302661641773158 
-0.0010109597343746202 
0.81543592940833776 
0.0020281311785193363 
-0.0048565164233753391 
0.034893344370451343 
-0.0032208118982874406 
0.008613158672960336 
-0.07044566205994221 
-0.076262172932301725 
0.0014010426128272953 
0.039518964800329605 
-0.0012000706406197275 
-0.0011642163664932544 
0.16512600222795551 
-0.019282977796321689 
0.007778351221590105 
0.047045384130588438 
0.22563364321079182 
0.0075805020211147014 
-0.015573362453373631 
-0.0080146761280830356 
-0.0011808134334814631 
-0.50256198756264747 
0 
0 
-0.0076349141747593836 
0.077393695932134215 
0.19279485569958071 
0.12990158259711437 
0 
0.096376556132600849 
0.14272809001783876 
-0.0034657764293676441 
-0.092631522593430715 
0.1365607641959489 
0 
-0.11966718553422218 
0.00011003530559596182 
-0.31418256885222928 
-0.00064384796734117766 
-0.036595607754078996 
-0.31269399244452489 
-0.00244147491298536 
0.027736167532715881 
0.066748934741656329 
-0.4712745925550228 
0.013803050088089304 
-0.017771306073104516 
-0.2840411949711984 
0.23707417903866623 
0.035150097950455664 
-0.00020655871464231147 
0 
-0.013786409766920811 
0.13080870951353668 
0.14473340686595532 
1.5095645564752775 
-0.043412271030227711 
0.67209904847169488 
0.051478327926388248 
0.34205488297793463 
-0.0019349136979208348 
-0.32053397863189914 
-0.01430406884529032 
0.49746297289513647 
0.027488463449367468 
0.21231965568965366 
-0.099115562467398124 
-0.043744987848326283 
-0.048982750137012962 
-0.057988598572554527 
0.13552217343752615 
0 
0.0077437386997669172 
-0.89720548015263413 
0 
-0.62131558619494998 
-0.0060469126665279645 
0.0037100793648380528 
-0.083762765781083048 
-0.5549330177284949 
-0.094597605573711274 
-0.082478151978492315 
0.065741300210105352 
-0.075792684695757395 
-0.078390355069529863 
0.0037744207293499074 
0.0040721448640565344 
-0.11689730549291247 
0.12029294118476307 
-0.242024285832631 
0.12046474178416766 
0.080040181847142483 
0 
-0.00125206426526921 
0.11824205576924646 
0.013560508189958805 
0 
0 
0.024010149596330195 
0.30669236414293866 
0 
0.18577901328653895 
0.047167476349224108 
-0.020852100752470903 
0.015722828375052199 
-0.033362658163568364 
0 
-0.018244072068689735 
0 
-0.075536631729063497 
-0.15029637572765939 
0 
0.17823003805316662 
-0.0079576965007912386 
0.11317693998114386 
-0.00016393742595346246 
-0.049282681711617489 
-0.98830447405583088 
0.0065262346648765554 
-0.091892778147242921 
3.0298292873138211 
0.15092226643914936 
-0.034845836885950707 
-0.10570647867430641 
-0.0075210488058512475 
0 
0.020872448003338186 
0.3138971314364134 
-0.030983511982990507 
-0.056312915501979269 
0 
0.038682884561913537 
-0.013569883132710906 
0.053276699655937933 
0.047877987289062979 
0.040976639911707996 
0.019683735760850678 
0.15392329682201678 
-0.0043551449828928852 
-0.051040819867169018 
0.038726755653721662 
-0.013609322873072656 
-0.024968845336675385 
0 
0 
0.033992421437742122 
0.01471209595703634 
-0.060597851390113519 
0.048558678229515304 
-0.039040577205574842 
0.17492042421204415 
-0.00042121434609206559 
0.0043986004716913933 
0.035352138124973259 
0 
-0.024101256286477149 
0.0023339396397347614 
-0.15175885472618314 
0 
0.050069607176104411 
-0.029350717707826813 
0.0010165613004966415 
-0.009881815977157607 
0.027290875560837279 
-0.17199121564712733 
-0.00015677585532126859 
0.091509654556873543 
0 
0.069752127569210259 
0.0028963703400930645 
-0.0097524004364354499 
-0.003378935988217075 
0 
0 
-0.43153430242754753 
0.0041551928357342442 
0 
0.090227478013548662 
0.16952596783590543 
0.14290305685856403 
0.20758199646671055 
0.10003399835099108 
0.045215055211006154 
-0.024429745699913422 
-0.0085698823723163713 
0.0012605383034367387 
0.063038748224065411 
0.046669207277017372 
0.01167315735894997 
0.0078123376750605777 
-0.079074337463572592 
0 
0.0026532020103114413 
0.0084882083042182553 
-0.14568468997273365 
-0.02189489462464677 
0.01999075018671137 
0.0016788954394959844 
-0.17975990257093263 
-0.0072420586336814901 
0.40913971013479355 
-0.076371245069862204 
0 
-0.15469096921878389 
0.0011656352368992718 
0 
-0.035600802982708561 
-0.0026967659304612812 
-0.065276640014302528 
0.03262029627741353 
-0.012843528816404208 
0.014771838342691718 
0.0322713630814195 
0.36274481587935703 
-0.0083404271976533877 
0.0067987104999061203 
-0.020745758347906314 
-0.015420289763932327 
0.010301824389931777 
-0.053512996402130045 
-0.025072380152502946 
0.0025872509225926248 
0.063517821585036188 
0 
0.0012284822472053898 
0.2029669986654446 
0.0055352727247867895 
-0.049577957487400036 
-0.046580404102291188 
-0.00061773457802939853 
0.015603959917901852 
0.015432067900470877 
-0.016576434154618725 
0.064515640473331914 
-0.01655232646036281 
0.013368226500470233 
0.049677867799825012 
-0.0055230420675912474 
-0.016302066569471398 
0.011323291019171006 
0.00069093874536863659 
-0.081499655009441924 
0.045836269000596119 
1.2539583155377443 
0.0093402719653822713 
0 
0.087346735784129756 
0.018845764686808198 
0.0049118949384338306 
-0.23194550853739238 
-0.01168611408257058 
0.010665776796000866 
-0.048065798765233307 
-0.066003689442274777 
-0.032630803887230428 
-0.031030073800647526 
-0.014018197093634811 
-0.0022521589375112234 
-0.021084812833632414 
0.016036953083392168 
0.019514434016073952 
-0.028128114472217178 
0.0078176883446896776 
-0.39613318353193078 
0.067199623761469707 
0.013894850703180757 
-0.056575867567610579 
-0.031565722409334682 
0.0013812764344458489 
0.0064636393737008673 
-0.033127625588839832 
0.0058017092114879057 
-0.00700589995840356 
0.0065050667102145602 
0.089408495874107291 
0.77127185414714372 
-0.11271788611367006 
0 
-0.037871723944598534 
-0.26627192536686461 
-0.015182338348645255 
-0.032168994455007031 
0.2609033551154486 
0.047361552302930515 
-0.064980546967057906 
-0.24615088505047195 
0.0047873276226832653 
-0.0033756274020488742 
0 
0.0012019766796685085 
-0.010371604429809497 
0.0042244543023261961 
0.017800854387893597 
-0.029334299145872243 
0.1083064117710527 
0.13448530032856706 
0.042892024214777627 
-0.011881753326552233 
0.059388166720354262 
0.0053204626746196186 
-0.010281340891774531 
0.001053795036862608 
-0.036028977390601034 
0.2370034431874653 
-0.021942641684480527 
0 
0.085847846600546646 
-0.020775890639829056 
-0.088112488713176645 
0.036772044547513622 
-0.23345089122590121 
0.021138518940607691 
0 
-0.001994787239529173 
-0.017593228718113571 
0.20900697439080435 
0.011898858656832944 
-0.0016086446293702545 
0 
-0.0046653536467664604 
0 
-0.0071178058017095057 
0 
-0.030577054833939993 
0.10156894991850389 
0.0099596449108275038 
-0.002599488565054959 
0.15083540855247998 
-0.010779205425950469 
0.011066286495176832 
-0.0078316650557156767 
0.017568722802430124 
-0.032950082433910219 
0.0023793549785702242 
-0.16189326635917514 
-0.050887502469166596 
-0.036215465960668269 
-0.0038920992282303482 
-0.023704115634820309 
0.00037363731859314992 
0 
0.0050283824702095055 
-0.056699367066391337 
-0.020788631347756728 
0.012985420133302877 
0.051372402054529281 
-0.0029372574814038087 
0.023779861589698643 
0.044387896886097594 
-0.015100112205152501 
0 
0.033597871569823828 
-0.0042191740888623801 
-0.10064928278470324 
0.015420942334568703 
-0.015942771902431492 
-0.00098161622813455122 
-0.026527842825361077 
-0.20319051211622774 
0.046241568940927943 
-0.097235516690136248 
0.16799424480446751 
-0.046789715615387029 
0.089224287177918443 
0.0144870926865533 
0.13013182268754009 
0.0083932060778343035 
0.014664612861930921 
0.074489547171010334 
-0.04015957022074651 
-0.029964082835030648 
0.27141514672059153 
0.016074069866769514 
0.032618619666580306 
-0.0074126026988236646 
0.097910346309833141 
-0.032546678168634977 
-0.12374625671596651 
0.022543743642766519 
0.44345730521417503 
0.073073858240741363 
-0.012656589931800646 
-0.01983546275692985 
0.016659637831114973 
0.33674372647747142 
-0.0039279457533667201 
-0.077795505244345975 
0.015315581320685594 
-0.016133809828205982 
-0.010645366609528154 
0.081180846326727091 
-0.14369434629366432 
0 
-0.80320059750776129 
0 
-0.0015767590343766075 
-0.027450222622538999 
-0.026351889439038302 
-0.02299420348769185 
-0.19118901709064373 
-0.0039608363724558783 
-0.0026213636214544537 
0.0018301051583272552 
0.022913111598557197 
-0.0017704787061811422 
0.0020258880460558952 
0.20890448476306894 
-0.13238680749475631 
-0.094697338272824227 
-0.051697486306834496 
-0.14706746684055985 
-0.00078944807256205738 
0 
0 
-0.0040031387178757309 
0.0089704337969252514 
0.042610520401912051 
-0.0040018306643287488 
-0.11020018744133619 
-0.069481385831373949 
0 
0 
0 
0.006546343702157972 
-0.0024710791259676141 
0.025197630394631861 
-0.0084051570997717897 
0.75316108013547023 
0.15538830428118269 
0.084114100234555483 
-0.0083076287503551539 
0.0031961586319697996 
-0.00027064359581799096 
0.35987957101221424 
-0.099800091328734089 
0.094798419182020435 
0.014919377165133266 
0.019620928128161227 
0.029066416887222404 
0.014129970221671239 
0.097241879933150088 
0.057976444814824488 
0.014377932166684815 
0.007635350520937099 
0.01670085817741369 
-0.03160622088349483 
0.014417064149373448 
-0.77614503141179714 
-0.02951804335197343 
0.035855219051261399 
0.0070134103310535321 
0 
-0.12084716608801727 
-0.002153452106564614 
0.1116847810080996 
0.011520774750253163 
-0.094420594986363848 
0 
0 
0.080534946936140328 
-0.1147743249644429 
0.049323275719581422 
0.011314622583428732 
0.053191320780940146 
-0.014553182440785243 
-0.0030310892707673086 
0.042961531408663087 
0.21465496929252995 
0.028840958041195394 
0.026662819093227211 
0.15663283325088267 
-0.06315019575092734 
0.0069354631318836665 
-0.057422451377056587 
-0.042221294222869465 
0.014753366845133332 
0.016580479118809908 
-0.030274105456279555 
-0.0069930921861807924 
0.0023654586096557234 
-0.1650515481181194 
0.15733360113030645 
-0.062241898196715321 
-0.0042927987312948307 
-0.0098725349157115384 
0.022291834274249949 
0.0034864951917978632 
0.00035178943719021993 
-0.018112719873139897 
-0.002421831954830614 
-0.011233302743223044 
0.0014194918655196487 
-0.082143689376563536 
0.11849597738039125 
0 
-0.027234712999251117 
-0.024024877497998531 
-0.022261588742954183 
-0.05969182187145286 
0.094924823712185885 
0.001100146170877427 
-0.027527478416878345 
-0.012129566018692717 
0.00038094580515668627 
-0.014950789373848177 
-0.03206042979175551 
-0.0008283464453385257 
0.0084000188823189787 
0.033479843831887651 
0.049799399692141311 
-0.16596939075677342 
0.060724623889314162 
0.021500403431605718 
-0.14030053492376821 
-0.0039315106019793614 
-0.0020700364544923074 
-0.011361109404716189 
-0.0021561457681591786 
-0.14077386354907137 
0.13094853615521246 
0 
0.0078320311922135798 
0 
-0.030758072041997965 
0.43015058148158447 
0.0051257339380235897 
0 
-0.013428411578304246 
0.0049827131754457601 
-0.024897578634414802 
-0.00080850060171408131 
0.021074243848431783 
-0.26187610793320459 
-0.0099239564721260928 
-0.17101012707818766 
0.0048273113964322108 
-0.024102555024740725 
0.0044324861336335203 
0.022736174962406895 
-0.05417285881793904 
0.017433685549620079 
-0.009125913021705739 
0.078176596130092313 
-0.018100648026669781 
-0.02439785183729562 
0.34976101551868216 
-0.014288491665923633 
-0.014114299712837912 
-0.004220360418975228 
0.0023601381768888229 
0.0065976412987071402 
-0.044033206582707041 
0.027894070325203822 
-0.26094993320596882 
0.01470677212782541 
0.023627933818425328 
0.0096256743885077892 
0 
-0.076810642375217897 
-0.044154465738784739 
0.0069776294660847289 
0.069163979443285686 
0.062727804289040429 
0.16893925394600581 
0 
-0.014479961497825534 
-1.0016567568029908 
0.20051044270199136 
-6.8537775642588865e-05 
-0.0044841713823334777 
-0.084521100341426181 
-0.12710775699198668 
0 
0.13558097395632734 
0.055176695287416887 
0.011167031015440794 
-0.087555053364015589 
0.18977950781686634 
0.098318981011641993 
0.003418398500809188 
0.0033834636923350918 
0.0090019926192621835 
0.035623038918829911 
-0.005533174710552707 
0.010675366196670083 
-0.028215229004810521 
-0.016353813135210178 
-0.005810709078779599 
-0.023624966841036654 
-0.022237488038319528 
0.0057158191406811104 
0.0013619436368317289 
0.16868709285393566 
0.0052613899922593545 
0.050660271506751176 
-0.055625528072285657 
0.0052222683321086084 
0.46504631941849722 
0.0049920641097332789 
0.21673233642359069 
-0.04171427889457488 
0.086323514764068854 
0 
0.00026162561311749127 
-0.076706284019899096 
-0.031425800324809725 
0.07538048243811013 
-0.11174227614276822 
0.08220386432553306 
-0.58613018401921468 
-0.021396551535285024 
0.023470565658023541 
-0.021911724925011145 
-0.066300158074736951 
0.010427451751772695 
-0.00024439487356081829 
-0.00062652767481807283 
0.19110546017945243 
0.0078313168513965137 
0.0076445598947975811 
0.031384041755003506 
0.058719014105516304 
-0.002177387549192427 
-0.017842689309055339 
-0.14549587986056411 
-0.11962701981752824 
0.23876074010901255 
-1.2253124168534373 
0 
-0.020915926177005169 
0.053828538356283581 
0.011020783550884549 
-0.011724127043667466 
0.031307153484972788 
0.045205472476488873 
0.053956662510661356 
-0.06963635941305793 
0.0018867275040872723 
-0.0041454959069726297 
0.040272961702323758 
-0.085471972869541779 
-0.011876339147573786 
-0.016484225851781664 
-0.015833698334702405 
0.0057340058694863218 
0.022718313396473719 
0.03837604075466329 
-0.0020981259664090502 
-0.0053715818620158045 
-0.026528423672084057 
-0.022421188127895376 
0.0031623948221998471 
-0.0036294118581156384 
-0.057110136156962005 
0.012931622598499871 
0.010855289998779782 
0.012751192870826277 
0.14709455001277763 
-0.065919687298209656 
-0.40134437490379865 
0 
-0.016879317985996296 
-0.0048492396160890842 
7.5804200613024221e-05 
0.076008447440673171 
0.016210680424537181 
-0.1790254064012447 
0.017241156423998951 
0.012870844986088224 
0.00079255939864397707 
0.0033014829336946785 
0.094578809846328105 
0.054676502332211357 
-0.00068165195162613198 
-0.0030882208320103322 
-0.0070047372037241127 
-0.0039271194753980583 
0.75247715648780278 
0.21261548870552743 
-0.0074359309195421285 
0.0068985485749294218 
0.026139141003899084 
-0.17993279932780645 
-0.0056803004562999103 
0.0059343410560347906 
-0.010475858454026109 
0 
0 
0.066525764103788021 
0.12720667720520887 
0.040638843127970795 
0 
-0.084742754576790147 
0.13208104333009052 
-0.036613387965397093 
0.011734805939200208 
0.15333222441246031 
0.032901060580765119 
-0.004755297192821065 
0.022420249339074175 
-0.032001975220739026 
0.2463109561988838 
0.0056267826566436148 
0 
0 
0 
-0.10691124923150455 
0.10585590198385292 
0 
-0.0051672675484939895 
-0.015260551163828807 
0.043968588718526422 
-0.0054715751839077694 
-0.00024092623771148269 
0.0013523088470456003 
-0.058658067599492533 
0.031131133289031034 
-0.10215738909824235 
-0.0082602407413656861 
-0.0034172693755532843 
0 
-0.15671940931950962 
-0.0046881941615225971 
0.0003659454075806138 
0.0075698085864546747 
-0.0024247617557288299 
-0.048671984654054222 
-0.0080888054019612986 
0.006547261478427966 
0.042282424983518321 
0 
-0.025570492335929784 
-0.032214625690180729 
-0.0038686758979738162 
0.036155349093520903 
-0.30177999680179379 
-0.061672290653491446 
-0.081304396230443193 
0.022878600541061909 
-0.044809914177636564 
-0.0001345217501762188 
-0.36272925380695192 
-0.0068985386902447017 
0 
0.028690044813022723 
0.14963520883737436 
0 
-0.019748212847140206 
0.0027672069444671585 
-0.00061820267425765913 
-0.0025312883644024163 
0.0095859108852138844 
0.0032420846461805571 
0.029711129749613926 
-0.16863539031688946 
0.00061719929389289691 
0.10021913777357842 
-0.4385794556059498 
0.013618229379588401 
0.0039666397073712771 
0.054642365891373612 
-0.045761319045038398 
0.1827597159662305 
0.1380421721609402 
0.087735764771761246 
0.016454621808784514 
-0.16686133778851703 
0.0070419157262495164 
0 
0 
0.2325338128938465 
-0.13707385424893739 
0.027967620306230241 
-0.031591360671780255 
0.013935780791561086 
0.029866561249068321 
-0.018022736453878259 
-0.10605551564180632 
-0.15675034975851687 
0.15617488949022029 
-0.0061838005944466557 
-0.012910262092956145 
0.020185954219428107 
0.11499951379238815 
-0.025866742569864036 
-0.12699845101940621 
-0.0093642503479076794 
-0.065664050780098682 
-0.056061773582353834 
0.00034393761559801375 
0.0026607639988806527 
-0.094925454103008233 
0.10813714074127975 
0.050284973481361121 
-0.10390057790295457 
-0.0039645239642455889 
0.00096728014090091317 
-0.09663928846410251 
-0.0099577417296959903 
-0.05101265505998491 
0 
0 
0.13356290708608681 
-0.03039549758572694 
0.0017819813504256605 
0.021225711529181901 
0.068770534388629428 
0 
0.16428775228881098 
-0.022793929881491294 
-0.11525341031248362 
-0.038824189042993014 
-0.029830647495827957 
-0.18087613319120163 
0.01090521412663868 
-0.27681385142724502 
-0.030360997011582888 
-0.011060100120432705 
0.0041422865701918471 
0.093228377375451171 
0 
0.00074131109721394125 
0.0033449698742069795 
0 
-0.0248654557301142 
0.032668635368488436 
0.022978340469826108 
-0.026979194273236889 
0.062326951152067607 
0.081589597647560713 
-0.019044341412702039 
-0.078551028437591791 
-0.0097409917850374093 
0.18983327405214881 
-0.0060551487096262915 
-0.23144108866110252 
-0.064068202479319075 
0.033878000322699657 
0.0021335166587908802 
-0.026303405907967085 
0.050558330288604916 
0.36426343512751835 
-0.055481000043225245 
-0.017451835248483198 
0.018213897509802214 
0.080816224462091232 
0.10657819465190274 
0.024004346144340143 
-0.025530036928627833 
-0.0076025788464530297 
0.035358012499084587 
-0.014098668518136667 
0.00012145188754433248 
-0.04378957131985043 
-0.071791587938857232 
0.12240127062667658 
0.034114047983965487 
-0.0160034490300223 
-0.0011147060745625406 
0.19400872188375906 
0.0049644333215026282 
0.027779363850604966 
0.1538268118135008 
0 
-0.053417609693254556 
-0.0043401285060637781 
0.047238042798610727 
-0.024241406592506065 
0.088396358773417727 
-0.028978410613798224 
-0.031800067081994482 
-0.0030136649008553999 
-0.24457663101937102 
0 
-0.14680735995002633 
0.019841754831490772 
0.055669863687615395 
0.019990013580733858 
0.0017748461054333149 
0 
-0.29067802607287863 
0.0088205332828192665 
0.11394437970988619 
0.12961359751491644 
0.11904849904543016 
-1.0326584840637965 
0.15270886751559365 
0.050613499628722046 
-0.026433807316883249 
-0.22377862152416511 
-0.41929295422289603 
-0.019000440371697722 
0.014159974216496101 
0.0040184659681889619 
0.0012582924938683297 
0 
-0.064613585010634245 
0.042651431438494536 
0 
0.034176810955925299 
0.010531131609263836 
0.040475901773837253 
0.089261432377288383 
-0.025604144844852399 
-0.0058316735291387466 
-0.00045342585472388778 
-0.0085789305721587876 
-0.019070831776819369 
0 
-0.56512410321930395 
-0.0041483060513267849 
0.020684211952555501 
0.0051847136937905698 
-0.0040464958597787896 
-0.29028152453388023 
-0.13106970640955473 
0 
-0.005295306246506805 
-0.0026855727747117737 
0.0088704459468460506 
-0.014465267927799548 
-0.030498077497769564 
-0.48392648984619024 
0.0060661378917763673 
-0.018558700354630059 
-0.00017889658630378222 
-0.0056111131622675788 
0.065686841697549486 
0.69311953545590466 
-0.035664347264986906 
-0.12656545194983698 
0.00027195677392095321 
0.051298787480554664 
-0.0041950624322448712 
0.0075534041432028191 
-0.012224277640729826 
-0.074949458376468131 
0.029372966407445369 
-0.0067921835170010412 
0.01319232431455112 
0.011964657208048655 
0.021137226714941004 
0.11452913925317776 
-0.0038667332447549752 
0.095308869034370733 
-0.011660618995487487 
0.00065909353482205006 
-8.3193742603217215e-05 
-0.007710461670414304 
0.10700281997451523 
-0.086925862407265422 
0.070661150704084907 
0.0011529511113989861 
-0.067339580175289182 
0.016124536153990891 
0.033667239480241841 
-0.11387965692877078 
0.029445053929249898 
-0.01751050556329882 
-0.03139419756270817 
0.016198369122367134 
0.0065789680314080699 
0.0062752687441671676 
0 
0 
0 
0.39550284816968073 
0.086997706788017201 
0.010565040764688349 
-0.00010703660442172356 
-0.011825399924462653 
0.011137016953624597 
0.02202622250828265 
-0.0048615700148957729 
0.0095078321540096288 
-0.081799706101943648 
0.17648243813043435 
0.0019822435602191175 
0.012151320483687365 
-0.025360946646958 
-0.028444647974857924 
0 
-0.12106235215243907 
0.14174220929095127 
0.049629329761420496 
-0.33073787449852654 
-0.057890539277896405 
-0.030605252168813598 
0 
0.24844679520992474 
0.054819707806247897 
0.023898022417102382 
-0.23833952498669939 
-0.0012396999598494516 
-0.44450142747451282 
-0.096342532857040003 
0 
0 
0.019607895743732489 
0.12995755657570007 
0.099364526597821967 
-0.068759394933843698 
-0.09243894045251741 
0.067713695477222835 
0 
0.0035976917575277134 
0.30293788902640995 
0.055651573837372431 
-0.0017030736654094812 
0.39198485872391098 
-0.022401293277559582 
-0.057081354353303262 
0.057188240449217713 
-0.34944181493728443 
0.0064170734537748499 
-0.08813773444642739 
1.3429970470545167 
0.00053474155398549965 
0.019247604746931938 
0.046668832522048252 
0.04978916466490925 
0.054265277544820509 
-0.066150898654382478 
-0.02517892064549666 
0.036007658724574135 
0.0053041280871189223 
-0.0086792989020059962 
-0.0069726650257032957 
0.19342170653488594 
0.040418874580124102 
0 
0.028329533819405291 
0.076761607346936406 
-0.013715394607212331 
-0.011385322841766465 
-0.26923976477848272 
0.044617280441975354 
-0.47184076626941479 
0.011063483998609319 
0.03757548564763083 
-0.021052419523271651 
0.012194192859960698 
0.042304789651820537 
-0.04061389727663476 
0 
0.001581178116933972 
0.13466459708965325 
-0.026210296036231914 
-0.23302874739043827 
0.019996590883462451 
0.078927947597591808 
0.20965844726931854 
0.1311463384580463 
-0.071059889202488485 
-0.15293397375539766 
0.051715051442765093 
-0.20328828146358349 
-0.61695911300452377 
0.03613647064044586 
0.049358466054454438 
-0.0067196669042737522 
0.098542734763652245 
-1.7171139585605362 
0.080176494980546853 
-0.093339024341630106 
-0.041705779088709573 
-0.035359436717384188 
0.24680932247888607 
-0.0040647544054495249 
0.028674273062670157 
-0.011453015527561157 
-0.027720979200720419 
0.069621843523992102 
0.013588448447332587 
-0.28092296673762795 
0.040607247820809322 
0.046124393328415961 
-0.12034739175162384 
0 
-0.15439208100269253 
0.38146375642865527 
0 
0 
0.24254625626078874 
0.030578472693855781 
0.0034148449500195489 
0.001631721690235872 
0.0081576926732274246 
-5.4909495722677072e-05 
0.07242792318804539 
-0.00079152502336871794 
0.013404840776077859 
0.09595102871782854 
0.014484515814239724 
0.33586652787211557 
0.02377827063030899 
0.0021929630004850569 
-0.16087660194518499 
0.011318881744619287 
-0.339282294592546 
-0.0003916290437916205 
0.04773346586139951 
-0.21471427973003548 
0.00031645445246919186 
-0.030638702268186983 
-0.013531222105162203 
0.00044906841164808232 
0.07265096462184395 
-0.0021081228134630487 
0.040364409166110449 
0.0013621390921347339 
-0.013440565957550523 
-0.20931330368899656 
0.077849912340968733 
-0.0751514464011237 
0.26832708176551567 
-0.0058012347803363517 
-0.0085028412515074682 
-0.029960792299254541 
0.00055647531265248806 
-0.071111841590914826 
-0.016173130955386944 
-0.054217945663489822 
0.0022294732176715293 
0.0015338117392532584 
-0.016610101246133414 
0.075596265963702086 
0.040135271307815898 
-0.035595938990113526 
0.012546142904605668 
-0.00014966193576914288 
0.025018225316361331 
-0.031166169997153027 
-0.03968394405745472 
-0.022442992558555766 
0.025073842087630957 
-0.16151001936802514 
-0.0036971794083932689 
0.013001021643925539 
0.16530331898362785 
0.010548582755758755 
-0.046641531133354702 
-0.007075760974707055 
-0.011882105270662338 
0.1167352671752756 
0.0093294251171517975 
-0.04313181114927582 
-0.017456244179164658 
0.055823171097448249 
0.15289578517867702 
7.8578804986951438e-05 
-0.1342373175776107 
-0.0046851431785398245 
0.10634666384876357 
-0.03133873767747844 
0.0025218156027051958 
0.09889402888751056 
0.017961247882277469 
-0.41337941266134309 
-0.3423802518653235 
-0.0027862014687741648 
-0.0062273511380121944 
0.33761544431339224 
-0.0027929978718957338 
-0.08566125196008767 
0.0050952281235201197 
0.0011003363851588514 
0.019635403498863169 
0.2926444196085915 
-0.0055502015163283874 
0.54430184513256252 
-0.0021729305308908907 
-0.0048721864075801542 
0.046624079274173127 
-0.031659183078682658 
0.18300526752110846 
0.0038223063420394126 
-0.23636986110428457 
0.009440369542359682 
0.071677588179100318 
0.052291112112159574 
-0.15127032263456841 
-0.024615678073116563 
-0.0021187688649511628 
-0.74890203091919583 
-0.0086790294086733551 
-0.082383321980593602 
-0.076895827854241303 
0.074484164759696353 
0.086059967098703088 
-0.028707995792690469 
0.14414992612494029 
-0.035880834519035266 
0.046743756322494216 
0.05724311737624032 
0.019826220745574594 
-0.049034396241165665 
-0.056429309244403779 
-0.033029692626853548 
0.31107288295735308 
-0.01202580101765667 
-0.0092764942360460366 
0.0039031931313895252 
-0.16032054463246442 
0.026686200414492867 
-0.0077201917422188371 
-0.0069858753848134223 
-0.047893579157850974 
-0.0036645754925624923 
0 
0 
0 
0 
0.10719606579851296 
0.02789271699965714 
0.0031875384654744786 
-0.0013323744569787481 
0 
0.16111701802504824 
0.60109325268206848 
0.31741546896239131 
0.015699592556138394 
0.011291947475443629 
-0.014949367817365524 
0.035908978983655415 
0.008521156996383103 
-0.0051976025101397282 
-0.0033639855801239145 
-0.051846112214477526 
0.62208193655037114 
0.0086684819100602689 
-0.0088706615890176352 
-0.012334557309366997 
0.083175483993854285 
-0.28222615264556183 
-0.35547849979986124 
0.10824415414930019 
0.019538318523746608 
-0.42580349082307123 
0.0054102505585180965 
0.23343060081946115 
-0.14542113296803835 
-0.0019599136329593396 
0.11054656616502938 
-0.02647266686559873 
-0.017034528189577885 
0.022255168995742716 
0.0093774103114277127 
0.33680238654078221 
0.08118842159199896 
0.012233424379297322 
0.011340605104601491 
0.004603886268772988 
0.042390637366152104 
0.25634494347539 
-0.013063990258197076 
0.0038798190819396032 
-0.037450489410493927 
-0.0016907825469968294 
0.028151557459349365 
-0.080608871925757442 
-0.0071139404311959991 
0.016328440194778242 
-0.01717978072973882 
0.0049301080650846624 
-0.002168193926401051 
-0.0049278133148152265 
-0.13768473797426428 
0.005728031860861748 
-0.33469525736456107 
-0.14246661369702207 
-0.23041466868078653 
-0.039164427358139423 
-0.18185510521713633 
-0.030726513238487737 
0.053190583899671462 
0.069384979322786505 
0.023282409096607105 
0.018679717196705976 
0.086600506318313203 
0.012378770712886778 
0 
0 
0 
-0.0018934719233040444 
-0.039482880627484937 
-0.13682412078371031 
0.03336040957055203 
0.44510379199986655 
-0.0050371731643290788 
-0.07102879495561662 
0 
0 
-0.013776271462972237 
0.052458820590936178 
-0.0041103765400638276 
0 
-0.29559594500850461 
3.1194673084713043e-06 
0.0054825614376459364 
0.099551314975672822 
0.13917296765344012 
-0.066645485268334942 
-0.02221672806107744 
0.20383308576821321 
0.029929888299297686 
0.39370707000354832 
-0.0056971827264806632 
0.010292895577956342 
0.012767547567606966 
-0.0044406229195490627 
0 
-0.042653165744473573 
0.0008183348713646807 
-0.04230810801058478 
-0.098470607744874303 
0 
-0.00092612747240840678 
0 
0 
0.016511651759644641 
0.023160194254380807 
-0.026841124606547771 
0 
-0.19361965509641926 
0.011562238102965104 
-0.10198746613122397 
0.0098188770415083178 
0.023763324962170672 
0.048097583169974589 
0.087224704883352711 
0.03241175153736181 
0.0022561757149672009 
-0.0023907535391956289 
0.0031574955338952945 
0.0083157329826276938 
-0.014977628424078335 
0.0011911341977160169 
-0.011706982255815158 
-0.015483908846729965 
-0.02958820172801227 
-0.0022743185726056409 
-0.0013970791683500915 
-6.5946098524076127e-06 
0.0038821697640658861 
0.054600560707133233 
-0.011478030860841745 
0.0013235655619439199 
0.15235377439892564 
0.0092388159237536006 
0.0038501090074023873 
-0.015498703474010113 
-0.010988016047780196 
0.017071676239154496 
0.11147749399534077 
-0.0086899171708936171 
0.018007314832306706 
0.13560708461519613 
-0.021753715243865476 
0.059014401571398395 
0.32418589092094674 
-0.031649324799385148 
0.14840316953330107 
-7.0546339214170233e-05 
0.014390226809952604 
0.12848464824013772 
-0.02201038742003409 
0.023739624144635242 
0.029666220357382762 
0.039586312362947303 
-0.00081356915642614438 
-0.0016732850721737887 
0.66383235996720003 
0.59385143430910736 
-0.10377877640698441 
-0.00021967729673483635 
0.006404564068198797 
0.98493656106338312 
-0.02368828669246378 
0.0036694634589923038 
-0.0016369953233407876 
-0.0062729056771649912 
-0.018698507404680043 
-0.033047343244794532 
-0.028864502469852393 
-0.0060152006537795479 
-0.02901666868054063 
-0.013753146069157934 
-0.046737749105378514 
-0.052299242957030104 
-0.011018528925710829 
-0.029869094426967432 
0.13136791927754932 
0.018517035826331588 
0.17765972764738094 
-0.0069643329872352061 
-0.0084831198755071432 
-0.01900312394668956 
-0.046895197080328792 
0.0011273021043159332 
0.19666392038765818 
-0.033182226196839276 
-0.0094508556213813467 
-0.029892134851292385 
0.055641438048207564 
-0.61399549773876982 
0.02223270795952359 
0.3902214921657704 
-0.046186535866710239 
0.051932829561842614 
-0.005216402549543496 
-0.073239019707693337 
-0.0010558243114005587 
-0.014244144284325326 
-0.15155939827519649 
-0.13087011686735506 
0.0072416050523007765 
0.023558516920347973 
-0.16335600815213686 
-0.0684994816221631 
0.005286658032819286 
0.059596371949635005 
0.03828358505490001 
-9.9068991909307357e-05 
0.034433893933630694 
-0.0056075834325960607 
0.2848199474596374 
-0.038668669640402657 
-0.082469507271857034 
0.018396335009063 
0.05376400493392057 
0.068681512611747181 
0.16713830367266325 
-0.0033792013274216142 
-0.0037953890297527087 
-0.006789821927239717 
-0.0046657923897808398 
0.0084180065977880157 
0 
0 
0 
0 
0 
0 
0 
0 
0 
0 
0 
0 
0.0078740844180261622 
0.0093661828519629592 
-0.003436227518917014 
-0.0060029788057402791 
0.27172604240192338 
-0.0056899029498910089 
-0.005958536077913675 
0.35073406602046397 
0.026268969657469832 
-0.17385021857632299 
0.0018255810592919496 
-0.0025848813373006837 
0.069713993760585846 
0 
-0.010286366813831816 
-0.0088280042184998575 
-0.057028645592826832 
0.038748473206153267 
0.063625180922565 
-0.019841662610732773 
0.004405881499352669 
-0.019749872424237223 
-0.04181408110597773 
-0.16741517323473368 
-0.28382134940158132 
0.046774773180335481 
0.19105172772285073 
-0.20116191761426727 
-0.029541664077566834 
0.015460277481614156 
-0.00021703507443789901 
-0.054942164070242307 
0.055914853980970139 
0.077397422555876783 
0 
0.071736530923612291 
-0.0017978189021902124 
-0.018012806246745304 
0.06316426979227896 
0.11379813674124145 
0 
-0.138980859263932 
0.025696874723686418 
0.0084869141188471178 
0.0053902857002099923 
-0.016599639870502114 
0.032041039559179967 
0.035697811698137363 
0.0082011922330934295 
0.0049802755907907021 
-0.68660227767802884 
0.10898109821336725 
0.072227435538516183 
-0.090951419996484345 
0.0029186852192279369 
-0.068581125055234615 
0.041254580091173623 
0.082834557054329405 
0.00038381828942208831 
-0.011752250892197759 
0.13847847604164487 
-0.018774837629831537 
-0.073349951115925294 
0.063872018258645732 
0.024331331589984254 
0.039199582468000829 
0 
0.031794607703628491 
0.17115286945887115 
0.036662825571735086 
0.014815666999987227 
0.0071675722380897967 
0.026834731040145561 
-0.14228010733948754 
0.090751337853171743 
0.022374898252475572 
-0.30241883504249656 
0.26210772427780116 
0.054006156825730775 
-0.019903299044792832 
-0.030658358381860457 
-0.39518097528390084 
-0.010961828463508058 
-0.062231626614815239 
-0.0019974912814789319 
-0.21343635795936872 
0.35492326787388395 
-0.20906388113288021 
-0.074915230345866946 
0.0074769131198411092 
-0.041528200096628706 
0.041100307192971405 
0.0010801755545734181 
-0.10620477027295971 
0.064065758796327643 
-0.057371229751510294 
0.49050850982191951 
-0.017008530909906124 
0.040946661950784308 
0 
0.027375062441794981 
0.0069390718384616211 
0.00053469989246110266 
0.011491169186862668 
-0.16876686718477826 
0 
-0.020485844716344032 
0 
0.015203984193961609 
0.0013012001444120832 
0.0024215004575673708 
0.70844783004277034 
0.13753954537645957 
0.23298038798661186 
0.20600603561999298 
0.037448995288551924 
0.030056830747207545 
0 
-0.15465966136560474 
0.15746680254779621 
-0.63887885793901 
-0.33185980414773664 
0.022240876412906306 
-0.027424189142405346 
-0.031426711775723981 
-0.015737679600246711 
-0.07070715176486006 
0 
-0.079009161937772077 
-0.0051977635813568682 
-0.16121493198666623 
0.05789423883691612 
-0.15161880710114056 
-0.035632992196506286 
-0.0073006918412843146 
0.0036446939385558061 
0.0090423100666102846 
-0.0030300288922570397 
-0.016579068963307561 
0.010262446920745228 
-0.075594640899477025 
-0.071072735822235944 
-0.21650692924519432 
0.1191827398678986 
-0.15388166420408383 
0 
0.064828514109866772 
-0.13999009605107471 
0.21627183771232636 
-0.095246091081699999 
0.024323537890091049 
0.027867235295962828 
-0.0022073429459225358 
0.052192160355669037 
-0.014606833919502109 
0.00031206778686624471 
-0.0055995206613709842 
-0.062427521788443449 
-0.078061175068311672 
-0.050766146472330992 
0.046974792168287552 
0.034712136651645215 
0.14809232473619585 
0 
0 
0.0054036124934732054 
0 
-0.09453591420219877 
-0.012591223382052319 
-0.0041109438783004278 
-0.0090644027995671617 
-0.11205470339409654 
0 
-0.00054318576421725888 
-0.0029727146900087207 
-0.40556571740262093 
-0.024255383763409355 
-0.01357755486181959 
-0.065843451164505684 
0 
-0.21219355587744365 
-0.069016340474001209 
-0.01241584663039149 
0.12547008120083047 
0.079416996643278934 
-0.046897825468322593 
-0.18242878090072356 
-0.0048455042984860402 
0.038182969049175883 
-0.035373690856208888 
0.29212874548595708 
-0.054011930702390298 
-0.01021363090461776 
0.25379778898527261 
-0.0046689431453453261 
-0.041555640141971058 
0 
-0.035607095876285202 
0.012154943999121811 
-0.13567825300781367 
0 
-0.029787063291321546 
-0.1582602150638186 
0.00066138671571432214 
0.02272442448150213 
0.065865836528908692 
-0.015221255312828082 
0.2186215062599795 
-0.0080808886089178758 
0 
0.053858407725732457 
0.040739487268603422 
-0.018879603206128255 
0.0004056163107032939 
-0.11174419772417113 
-0.18163030724598245 
0.1704588156353099 
0 
0 
0.006460041910116579 
-0.31767751076319589 
-0.25328865559958114 
0 
-0.00072325832548591075 
0.0062074800749047834 
0.18254640449655141 
-0.033000806853501832 
0.21167198927641623 
-0.20443803518294262 
-1.7398660596634608 
0.061891882322455585 
-0.086122054090833983 
0.054536038728326158 
0.060978060607230725 
-0.18458884168207229 
-0.025235042874434052 
-0.03220222175772626 
-0.041227269385741463 
0 
0.071376131627152145 
-0.0062507218365487321 
-0.010849774507270368 
-0.016659262783662102 
0.00023277863599958888 
-0.08639253424065646 
0.032828500270083508 
0.00090724612201621571 
0.027080323508122207 
-0.063139332176845933 
0.063864143949955807 
-0.016343610395032682 
0.26434534849224278 
-0.064738837193185794 
0 
0 
0.0063217029781244011 
0.20661823841009225 
0.0025518941111637525 
0.064081148964914972 
-0.00010310646338016719 
0.071758404048664792 
0.10612563734508484 
-0.0014246484502237059 
0.0054497733142784225 
-0.016277538854467789 
-0.008338624238822475 
0.50784191109946342 
0.17428366973971859 
-0.72490863362635838 
0 
0.04215061949458946 
0.040531697533613166 
-0.016690523657351516 
0.0050904148488523735 
-0.085319655120130206 
0.061236522888668668 
0.030685531589531155 
0.35290461733545953 
-0.0042482303650206773 
-0.054183643335956308 
-0.012232002515559507 
0.19840473513580956 
-0.0050569432678101781 
-0.0031410644642894895 
-0.19142513820475868 
0.010202909505344866 
0 
0.081462227601677012 
-0.017597659508822982 
0.20179306845582873 
-0.09355313731782916 
0.13539966856584626 
0.086904908796912539 
0.38623751063784556 
-0.15129911402180435 
-0.12824445481918051 
-0.016873231725729833 
0.11084312545708225 
0.0078885084003266839 
0 
0.042990587779061333 
-0.31049028607498375 
0.08490120746229185 
0.0033993094455141044 
0.030862276329123729 
-0.13802984208590066 
0.02783528201112832 
-0.13759598862578429 
0.32920547404988099 
-0.0043038521470913802 
-0.011489105694973857 
0 
0 
0 
0.45800377018790078 
-0.113090953008428 
0.0055143142668188858 
-0.0067307599446878464 
0 
0.37126209854254644 
0 
0 
-0.02622005024399908 
0.013630234961533809 
0.097935130668140996 
-0.00063074907234792659 
-0.018630639051509159 
0.24942193389669665 
0.73312608189859896 
-0.35737703068236543 
0.0051182326866385571 
-0.00028756799442630413 
-0.0084989565580373336 
-0.0025757658113610836 
0.1097143353492788 
0 
-0.029682474904598355 
-0.033935183304103375 
0.07307884376297466 
-0.010003989368024302 
0.67138261122602172 
-0.0058132919913151653 
-0.20320786727043422 
-0.040845640025564206 
-0.18977908001651161 
0.003348276358189553 
0.023179623706521796 
0 
0 
0.024616670452829462 
0.017114208103041324 
-0.2529137342641895 
0.17758487168656517 
-0.045296721036585483 
-0.0015864134536039598 
0.069440414902852465 
0.0071592439435880853 
0.044982875151890436 
0.0073098800663164275 
-0.058305292655542261 
0.0021542526406679837 
0.014633019911326765 
-0.061850687741693625 
0.097858888438468822 
-0.0011225729921803046 
0.15443502771262968 
-0.009892106737236589 
-0.049279034340181709 
0.032597242736670473 
-0.0036508710124116992 
0.011675998499011363 
0.33021824096992608 
-0.098307078434649142 
-0.33004918636260872 
0.054462316106471675 
-0.047848968883799629 
-0.0057310581456141221 
-0.10116821829884196 
-0.16823432614656442 
0.034243218934693481 
1.4884188682022633e-05 
0.0096598210480728676 
-0.024245419675406513 
0.0039656725859997634 
0.097581778010902703 
-0.030328443120247447 
0.0055607190379825602 
-0.13906709597086092 
-0.0036867220484402188 
0.046034178959383047 
-0.038225218034695467 
0.051815590805039835 
-0.052867731524470295 
-0.00070350070083137961 
0.053792915385072027 
-0.33998559818646007 
-0.096896450932499795 
-0.037776909287335986 
-0.12019493268728004 
-0.0016798363569534855 
0.55193125292909129 
-0.070263130665508905 
-0.0088874047460066816 
0.016560477522182 
0.084229227339479115 
-0.063269930390175408 
0.30538680380401229 
0 
-0.0048488075049015981 
0.0061938761036234484 
0.092227024459072743 
-0.77992303404972008 
0 
-0.008676087990069966 
0.0025339053866834538 
0 
0.01931263292482794 
-0.056676088152048373 
-0.0096671787599029446 
0.0011185033303479017 
0.080867724135454622 
-0.1092277899360764 
-0.0027223852127181659 
-0.028816155868646436 
-0.0041810187611508766 
-0.017055345387268987 
-0.099124183286126766 
-0.0071484248319296411 
-0.014510733558708647 
0.055829400787968414 
0 
-0.32107268442883674 
-0.11608371442248615 
0.15374739307817742 
0.053356355872078501 
-0.10326290547598144 
-0.15710391345527491 
0.091114510018304437 
0.00013335610744393637 
-0.06749132100007306 
0.010784934808692706 
-0.20036149690616123 
-0.01161831288402203 
-0.0069075613139046328 
1.4404368427314433 
-0.053005288685026186 
-0.018078228459481357 
-0.074151392772252592 
0.0023293319877537907 
-0.27529658499040366 
-0.011852717483943172 
-0.0099563374741612025 
0 
-0.013444432636565791 
0.066277796697105734 
-0.049314308037287188 
0.0050308502433888038 
-0.29335117834518631 
-0.00026762947443535176 
-0.20821884769269788 
0.24765276984088749 
-0.03164593453735258 
-0.3250467744950109 
-0.025376310665396862 
-0.018126433870268181 
-0.10082424936133969 
0.26609091872372381 
0 
-0.0036639847034307081 
0.0010218196128380041 
0.055486553436690317 
-0.040411947028585277 
0.049781505424383823 
-0.12023401086743643 
0.0045829411501383133 
-0.0014735749381586927 
-0.0097518184195418064 
-0.0029098930527936451 
-0.094679431896242922 
0.07195371188021063 
0.07339606120999391 
-0.062086499402626692 
0.045183786480544864 
0.028973036848085616 
-0.040239152472382841 
-0.70775724089032854 
-0.11925800547028842 
0 
-0.26009064524070458 
-0.027462833313634537 
0.070344338427884068 
0.0021545445213660541 
0.058094814176032343 
0.11555233565158327 
-0.0075805584497404968 
-0.030975257841519908 
0.024260398411587343 
-0.098710274887579191 
0.60071620347914312 
0 
-0.12144366353107965 
0 
-0.021466059876538466 
0.0045995677073244808 
0.080932586077336652 
0.007339137772663186 
0.0054843524364020999 
0.0097689055541033132 
0.014511034034864144 
0.034107203726474626 
-0.0083039962680317991 
-0.0061964782112370618 
0.17612776317361856 
0.017696564792874677 
0.026668982922265855 
-0.0042763842422635272 
-0.10535993276465827 
-0.45093430239605858 
-0.001076698786725169 
-0.0075463452231340307 
-0.0061853113766689631 
0.018164537890434183 
-0.058778559822960444 
0.0066014728527998071 
-0.046761955401865438 
-0.0039153838952140424 
-0.059474824116757419 
0.0051263450857155042 
0.00042986790309013529 
-0.027078877069291921 
-0.020060401516888295 
-0.0044547550997322966 
-0.01125595270140483 
0.015401099808862541 
0 
0.00057414569166514147 
0.077887029838637878 
0.053159032163352035 
0.11670522868233538 
-0.00116998445623707 
-0.26865428987308182 
0.018447709828095016 
0.077047072037731618 
0.053613850362345096 
-0.10822843115465802 
0.034700014478068641 
0.040154073862000685 
0.012720286590986417 
0.023380976873268955 
0.35549652130458675 
0.12799671439890287 
-0.0011999242501588875 
-0.0089981024862072698 
-0.060919785232763493 
-0.37513116613426489 
-0.06169373273083336 
0 
-0.023678582577320827 
-0.057743835840770232 
-0.088895143936543408 
0.057875808132243411 
0.0034584109915836983 
0.0071292688950321068 
0 
0.35543524812654848 
0.27968147561449852 
0.37882398015972296 
-0.019220421489942595 
0.012738960868914864 
-0.0018742037947544633 
0.018338393322855234 
-0.14902421928857579 
0.00041382140647471053 
0.030146037912639177 
-0.1049606854079176 
0.0042414845005978377 
-0.097786620528022672 
-0.031423609921287635 
0.23591486140846707 
0.012670968680019237 
-0.036716811358533302 
-0.021119586660341624 
0.070673100560146557 
0.0016293585771203437 
0.52191174669455265 
-0.014780900127495871 
-0.59925858506968055 
-1.3602940696786519 
0 
0.178820178845427 
0.002294467226595139 
0.0071830940051550484 
0.0046950687059018944 
-0.1093199654954571 
-0.20852444806587661 
-0.0074026549500768729 
0.057234938475594299 
0 
-0.12901764110640174 
-0.5078928634400649 
0.016721339758323718 
-0.019623564129115808 
-0.019988600696821894 
0.024373357084897986 
0.031148977473637707 
0.24578694357886821 
0.75972536120151513 
-0.051549912852588746 
-0.068048482544734473 
-0.37498484272769317 
-0.041899410871589986 
-0.063930600522530495 
-0.00074169847328324793 
0.040230754845599237 
-0.0036938338379749851 
0.055659825389244078 
0.087519769619640586 
0.030773466225392308 
-0.033031421230712003 
-0.016801239236891585 
0.0027432431186585962 
-0.025851506572796674 
-0.072556812550455235 
0.0096680290174967348 
-0.0022319132007562192 
-0.073079992180370951 
0.34538553932118643 
0.21411903088963224 
0.0031232827642434019 
0.021758166995921285 
0 
-0.055826196689907834 
0.058465530077766212 
-0.04226911305302699 
0 
-0.12473266764459355 
-0.0333554721845985 
-0.0064542676851556575 
0.0018169765480414777 
0.004196518469853582 
0.01905697092831353 
0.010605419504242628 
0.01719372616175717 
-0.0067608789058135107 
0 
0.027184566142923673 
0.037844122491753965 
-0.056507281774727011 
-0.0011558802380767523 
0.021567321511082434 
-0.30982201703479617 
-0.0048113298054407398 
-0.0030466072101743248 
-0.45085868059512751 
0.0091985241370689148 
-0.25777527894384211 
0 
-0.017476624565325439 
-0.0080724286975784945 
-0.075405221994724839 
0.11692164085940976 
-0.015405841884855446 
-0.0054257269243700567 
0.019295043297630841 
-0.0012793187091461062 
-0.10054159300194096 
0.00058455177678268808 
0.0057191382101752274 
-0.094270134985644127 
0.13588607177739373 
0.0040207258314416319 
0.0068919531037666525 
-0.0073742221295501568 
-0.0049892448536356625 
-0.26720408653788452 
0.0045199469565395563 
0.067853952158674541 
-0.6484748150510391 
0.00030018347103925305 
-0.00057009018943218054 
-0.010077383574817635 
-0.002626561539392812 
0.0025303359158795917 
0.0037464696875902565 
0.10549133854491584 
0.00010454943596480522 
0.027073153466765761 
0.0020446385920495037 
0.017433197059875425 
-0.067832874956611527 
0.0016703794074805684 
0.10845175235690216 
-0.026310040871169442 
-0.0015979567614362792 
-0.0063101737778300578 
0.00024291280742126995 
-0.01484125743260116 
0.005398252156989981 
-8.7981509624343915e-05 
-0.030440180730650822 
0.026859983188668654 
-0.028249850575088796 
-0.0040788431729675929 
-0.20706836477804103 
0.10871502981074244 
-0.0019937167344653423 
-0.02122526955752527 
0.095124619299881169 
-0.06407914623801661 
-0.0024470518741102724 
0.36969514751914556 
0.009676669184744309 
-0.0010477515835641917 
0 
-0.034470076718146697 
-0.50576407314024641 
0.0043194583573294559 
0.00019446066891554625 
0.029631047123922227 
-0.23345435292572131 
0.47811181185602003 
-0.093003593285600886 
0 
0.0028913145617185517 
0 
0.014967881660493773 
0.0056382102075129403 
-0.17304830617551076 
-0.034974514155804187 
0 
0.036159110522543433 
0.11344000286935943 
-0.063362387114112212 
0 
-0.015945949565807201 
0.16101232636341783 
0.012666589587318502 
0.097319166709445681 
-0.019670476772185683 
-0.01004364015143484 
0.041738383514121624 
0 
-0.23913486190303174 
0.085147250042654304 
0.0024093354025933279 
0.082593555142618985 
-0.010964555485267657 
-0.026409754720679753 
-0.023214072927550858 
0.016092593612286519 
-0.00015866450582525303 
0.031153598342932638 
0.064276201558829446 
-0.067178937357607008 
0.010260583610156152 
0.0043064662518966981 
-0.0035102271043978223 
-0.0068484527337286435 
0.0053246288227366987 
-0.00055580972888658823 
0.050875163024637488 
0.61061223327228009 
0.0024781715159427741 
-0.017678868650156516 
-0.16379595413096168 
-0.02144020281661347 
-0.021973061109570306 
0 
-0.0024764375517000031 
0.16436813851366167 
0.22111593486519007 
0.007576684968858635 
0.02542176078789201 
0.0086073570764812566 
0.095054803437296165 
0.049542919026935091 
0.0022199610434011454 
-0.005052469471667851 
0 
0 
-0.075564866309479145 
-0.024755222918649185 
0 
0.03706961622750856 
-0.0038157823601284134 
0.044594753665303126 
-0.083123185118797904 
-0.048755649683656789 
-0.0024907670805294235 
-0.060977050104750935 
0.015725420234591142 
0.04253807301165477 
0.035206763622205567 
0.0039185872384317772 
0.031355314807087739 
-0.040479439233696013 
-0.011751872767781262 
0.041044922488295832 
0.012694807143614269 
0.11986127921709766 
-0.11598124592222184 
0.00017296673070625024 
0.054735953479463667 
0 
-0.50354935761043684 
0.0049426292076658121 
-0.41931267769201208 
-0.0094238680298380298 
0 
0.29442083315273504 
-0.0048777738120980461 
0.011102070457073818 
0.0045704645571091329 
0 
-0.037075989832419401 
0.034311770731563045 
0.00042037126603808523 
-0.026836892705939201 
0.0089304206854845282 
-0.0082536677861944595 
-0.030288728823680715 
0.0028640240910512496 
0.0048662091712936171 
-0.0037207696749743356 
0.0085651556952129875 
-0.098401026476551592 
0.049755071178468752 
-0.025388623277182044 
0.0079619061824212564 
0.38832212328656479 
-0.00062892824220241671 
0 
-0.0012020322345003703 
0.02512850456937725 
-0.058864083694278521 
0 
-0.055116427940716882 
0.11529178182735116 
-0.018725392086866514 
0 
0.00064262288805921441 
0 
0.020519822374576013 
-0.0015472027297068608 
-0.0027822511296572115 
0.03350758852709744 
-0.033677210882238504 
0.056639113581319893 
0.0014629924678860474 
0.14660001138002499 
-0.18305758617043849 
0.0021973724145458659 
-0.00088889816286115918 
0.0584216116743871 
-0.035521934924666043 
-0.072108873832881087 
0 
0.0014663662602837936 
0.0059613878383542561 
0.020472173435154672 
-5.0336789552203715e-05 
-6.8533645241108457e-05 
-0.08914388738298018 
0.078590878459467731 
0.0050593484450368719 
0.0022930780066580726 
-0.12749370956518913 
0.32821158029244124 
0.077298521789942398 
-0.014978279410091961 
0.01061195968540905 
0.0025179738291964101 
0 
0 
0 
0 
0.10125644556120607 
0.05654690286929983 
0.0062747353473237618 
0.0068904319951495901 
-0.14453152066128355 
-0.0083092373467076215 
0.025441643936553279 
-0.017289924492841835 
-0.05336667470739874 
0 
-0.0043058921533705632 
-0.016926385567181776 
-0.030960237856044123 
0.20036833105565455 
0 
-0.073574089087944022 
-0.14678672258110195 
-0.062940358228658816 
-0.016576072981892044 
0 
0.080460017357198349 
0.017480763484452495 
-0.090517563440072751 
0.056383363164287728 
-0.032161419798973599 
-0.11477283266740895 
-0.038097463733429489 
-0.17748547809846407 
-0.0095009333339504641 
0.12035858716038618 
0.45088500593341807 
0.014803665860099244 
0.16504714617058716 
0.01187244736275787 
0.0043862858232396685 
-0.0062738360264172335 
0.04145685868093768 
0.010163642665614191 
-0.0021421235196758511 
-0.017982416710993175 
-0.028814259598926258 
0.13054132977459043 
0.21698731222250622 
0.019748313953423791 
-0.0089142604765942782 
0.011455709958648867 
0.0068579281010804072 
0.0082584947819179175 
0.270541653753052 
0.0029093486219964717 
0.33523033145584019 
0.0052142510758784863 
0.14163127521984953 
0.047348630170328899 
0.0027218584409930708 
-0.030386750888425747 
0.0001602143391731476 
-0.012896617563868288 
-0.027799376038789854 
0.0012631388791308584 
-0.092789496645484582 
0.11778791686269705 
0 
0.21962642407235661 
-0.16386872337974404 
0.0078468911934954956 
-0.023690928805649172 
0.097162228372818044 
0.0035239705345397718 
-0.0018680134341857856 
0.16151563335130331 
-0.14084750352555073 
0.044213232355396745 
0.0040465693163150556 
0.11794099119698566 
-0.012016485259359366 
-0.0054440166254698464 
-0.05538752886259015 
-0.013567268153551063 
0.029903504926602317 
-0.21789773100332344 
-0.077997327641666322 
-0.013511014086902482 
0.11320510704076135 
0.011358719074116723 
0.041446400514073917 
-0.1157644184886248 
-0.01723332943185938 
0.61863251121575624 
0.041878002609443063 
0.011483981140104106 
0.015434088320205475 
-0.10057267369630174 
-0.061775383726890939 
0 
0.014720400292372215 
-0.00065025136792533681 
0.033944621921400304 
0.29701794539698556 
0 
-0.021048020340749252 
0.0043799162244400744 
0.054486481652423521 
-0.0045084214552924481 
-0.0044553520103889997 
-0.0049303860484193416 
0.24702054330489695 
-0.0038226615136532794 
-0.074760380850292907 
0.013246367526886713 
-0.058959309451294149 
-0.044194168912549917 
0.0028418123158234585 
-0.0015123403086015207 
-0.0021826084532580604 
0.030638124054594894 
-0.0026110346522024586 
-0.18009480295807179 
-0.00062504379864702225 
0 
0 
-0.013586069566653716 
-0.0053451027766957251 
-0.095174145210819169 
0.0037661753393041569 
-0.024037260951731018 
-0.0034029520787430614 
-0.3185465486175329 
0.045877906972548871 
-0.05907781528625046 
0.092250997799161571 
-0.032407446159035097 
0.098942387775827215 
-0.0070969738686202585 
0.023608381075158384 
-0.052090938634122917 
-0.0093047406843764779 
-0.0073260646681108038 
-0.13102502738394869 
-0.0017683504361786164 
0.036894213500257102 
0.012546621044705903 
-0.30928644467951999 
0.10348938002433207 
0.034617614146567555 
-0.51176264610920352 
0.065998596874207491 
-0.01051874107481578 
-0.036299540630429783 
0.15426159768622577 
-0.05096143181184315 
0.068086990895323107 
0.032829116386755376 
0.0074166994540003622 
-0.0031548075352686583 
3.9130181298408293e-05 
0.024039458213686866 
-0.076580799655859511 
-0.0066006215018012725 
-0.24312951055591073 
0 
-0.0015909164922978587 
-0.070008230740321517 
-0.052322408656928873 
-0.025068671249830171 
-0.012334892053004951 
-0.040314442213634401 
0 
-0.14658560955098737 
0.067541250560343075 
0.037278706553508865 
-0.3715954673209857 
-0.00078857496225077722 
-0.017551131630523249 
-0.015195134550173026 
-0.0010503631593486423 
-0.28974952224547101 
-0.0034523477574324537 
-0.050426601532446311 
-0.053923150715969856 
0.015123019338723707 
0.0068640986716998718 
0.002239069693215523 
-0.023604101620714871 
0.00041382665062154476 
0.049157881723125706 
0.097222185192405303 
0 
-0.011295694313390227 
0.44253619658504029 
-0.020708428697875009 
0 
0 
0 
0.24924640439176771 
0.069251510074830575 
0.21793257416270534 
-0.0055617071549577558 
0.066441022440771283 
-0.0095996191891619276 
-0.010299250655536722 
-0.28901413531218872 
0.098362473269575923 
0.08671859347506114 
0.36545802926541693 
-0.15514072291485093 
0.0091994709881967739 
-0.11241041960002088 
-0.19999403468219945 
-0.0097037594447303022 
0 
0.052975148854371108 
-0.18922690014959315 
0.014668864495031811 
-0.049019002943707715 
0.0082748409602723463 
0.039284653953108734 
0.02393513302515448 
0 
-0.15385040147264145 
-0.011494639510850561 
0.0037242090970435416 
0.071820405193045306 
-0.0038930836591860984 
-0.020225229470023351 
0.045321484296247057 
-0.022264281993058029 
0.10741479330346296 
-0.043536580543288489 
0.0070176307937954603 
0.00015586179906462936 
0 
-1.547253045363417 
0.14169844351993308 
-0.082868259149968412 
-0.20668000310909007 
-0.0017971623689186352 
-0.0034019025036271947 
0.40216606291623186 
0.008252478327668648 
-0.085308097622015661 
-0.036984118185428405 
0.01456102753130769 
0.11924665448033647 
-0.16773725166578471 
0 
-0.10036767324125631 
0.13406178243187516 
0.010661000055378808 
-0.07038186040484265 
-0.054113855819893579 
-0.00093687604782246507 
0.024487478801528191 
0.081577009718208901 
0.24284159306766717 
-0.030395544747664406 
-0.00014888115830559212 
-0.11005711845863973 
0.016528820534127818 
0.016882497528386338 
0.0092368086350927726 
0.0042023398873927455 
0.04204249441515507 
-0.18843360793368152 
0.021706423615591233 
0.023232074537113255 
0.035421724339308375 
0.037711643254792329 
-0.34421130937599487 
0.0070278823457273158 
-0.18084317430150193 
0.012814315268264855 
0.20520984322366326 
-0.18294540123517664 
0.028972032646390304 
-0.0061558614121298219 
0.023166010048568719 
-0.00076958883204689154 
-0.10569769443116178 
-0.016096270096482193 
-0.0050702084268489725 
0.021483898889649126 
0 
0.00078864639167228689 
-0.0481146695571638 
-0.42405247053325867 
0 
0.0045084099741874249 
0.02116151560852382 
0.2881129580911147 
0.25089685418713392 
0 
0.12107037942921131 
0.00086213560012416367 
-0.0037475734906573391 
-0.13204667112238624 
-0.0002479831859023473 
-0.013360247498209979 
-0.0028411365715596266 
-0.030297777604968948 
0.023025064339533614 
0.0098011596545504211 
0.006055438810912344 
0.018209607557096906 
-0.099289591179750877 
-0.0098321587651398791 
0.0024082513172371213 
1.2223501862260159e-05 
0.081710837916906837 
-0.002941069563981684 
-0.007682002307040507 
0.269552069365809 
0 
0 
0.025195061530957373 
-0.0022947190422961195 
0.0029464245425710246 
-0.0018585869394130128 
-0.021409179508564299 
-0.0059885797549835314 
0 
0.00062782379709461363 
-0.076292144607633686 
-0.0014128726543834187 
0.014808192786938059 
0.00024289926947423408 
-0.89033447241467401 
0 
0.052065472312642663 
0.13614007064748837 
-0.0048894853165785748 
0.016307156802436225 
0.0060235320016192358 
-0.011259975972353007 
-0.0042848209162679902 
0.029243017191982162 
0.049716598775918441 
-1.1361362095289964 
-0.16282762085160016 
0.001833006682851677 
-0.015407386131259259 
-0.00045865134497425649 
-0.01192336974323667 
0.0083844220698245341 
-0.00037220703211537643 
0.15476935861813418 
0.0075277374964746492 
0.0068289486790948633 
0.29331681032689105 
-0.014019225271041501 
-0.014774587241561804 
0.09801257962778151 
0 
-0.02012087782870417 
0.010992870817654311 
0.0017359446151250686 
0.00067655350778496499 
0 
-0.0416853675816478 
-0.1780387998019308 
-0.0060557736364713934 
0.003144528149003332 
-0.067542283622084309 
0.010247082456459469 
0.013371840642283517 
-0.09224916308743486 
-0.00027336671358090106 
-0.034028360924265352 
-0.053142815624135635 
-0.014642529867380863 
0.068167695578847054 
0.036940461769831262 
-0.017149199653675128 
0.0081368083898958055 
1.5095645564752775 
-0.014755713921906199 
-0.018742007136671755 
0.0024307176501167666 
0.066378956159101429 
-0.11386989779281928 
-1.4903076665948281 
0.078633277029801552 
-0.0087768469090489624 
0.042515560338151848 
0.010155164883320834 
0.099285159949909607 
-0.0096968091465482187 
0.038178439507750322 
-0.1207433597737637 
0.11492857508712792 
-0.046810130357862079 
-0.014284740126038167 
-0.36112644999463295 
0.047232869757660709 
0 
0 
0 
-0.0070434216962770319 
0.06311117064902276 
0.076594046057084822 
0.0015119303671653614 
0.011659932903766507 
0.032662305151993185 
0.0044502476326833953 
0.020217441515507577 
0.033967648309856407 
0.017372035713598154 
0.018506899231361566 
0.043583412121431506 
0.01177398208331713 
0.017382905381390808 
0.078862240375846021 
0.036616541660420679 
-0.1036599487181093 
-0.012230833739710161 
0.0099101875343184306 
-0.12282111794836996 
0.15545583618998382 
-0.067162832757747482 
0.0057677912753133238 
0.039925412641135333 
0.0034814193310695818 
0.00040628571334774008 
0.022477049995423833 
0.045243944907464313 
0.004997704762674372 
-0.040714415525612682 
-0.080180391260435441 
0.017332446264419037 
0.018382681119473856 
-0.0039628416462345727 
-0.00094421654706653346 
-0.01746999492522755 
-0.032713552733083275 
-0.14130675096201994 
-0.099392871989195108 
-0.078206361443868277 
0.016070132972158133 
-0.060271209063036235 
0.019014271242327404 
-0.049998785303581213 
-0.010405923035811801 
0.029158382263522187 
0.15793326275188255 
0.0077317063409391602 
-0.040028700020087057 
-0.055340663521913872 
0.022020152942823279 
-0.0053842108519517352 
-0.011977283174187635 
-0.012249540565003283 
0.015321040972828163 
0.13244564573386397 
0.0049070463997247073 
0.010833999053686781 
-0.045697512093419546 
-0.032080154026565576 
-0.18672731009059376 
0.011526964263664757 
-0.015031376369186356 
0.010756787867619478 
-0.0051989049880433215 
-0.029792959352769384 
-0.04162196823191408 
-0.003759216555518819 
0.045323672185617767 
-0.010363292331530057 
-0.0014426914038564087 
-0.030135672795216603 
0.0072156101931907298 
-0.032326138806235534 
0.0076811099579744673 
-0.004626452771892723 
0.023778088148819796 
0.0028970464773580918 
0.26664171297293604 
0.0060277050327809945 
0.0036894800928119198 
-0.0076959730034796003 
0.0022928875146551271 
-0.05780659917882363 
0.58747930089029943 
-0.050231537428550833 
0.0059531536324850167 
0 
0 
-0.053467227254152261 
0 
0.055830310475512707 
-0.077232873770602506 
-0.0003746202478373987 
0.0085496319809365579 
0 
-0.089000030924582502 
-0.0017286044688179982 
-0.044818042269740566 
0.0027999537506421101 
-0.0043729272565889944 
0.056071647143584251 
0.0016543648487894337 
-0.073200568338981725 
0.032411203522396882 
-0.010325226488926826 
0.03193567670098952 
-0.19307709790450681 
-0.018015646364778592 
0.042499967838533458 
0 
0 
-0.0096274211625925962 
-0.041093737107771505 
0.0065146072647901555 
0.051783866586150799 
0.11274548490214464 
-0.015523937450611685 
-0.025024039067873968 
0.0011359861274161966 
0.058783456173690324 
0.05757900018953685 
-0.21216121738561466 
-1.1765885183555551 
0.027437444069906052 
0.0038042463056630529 
0.016858198955530829 
-0.13459868150775434 
0.082625132294982556 
-0.066258985288779021 
-0.036443614704635099 
-0.0058609582279287092 
-0.0054104335312090603 
0.02281852277274499 
-0.0074738884631952527 
0.092253937105218675 
-0.023255252412829015 
-0.018773544033470667 
0.0028849112017554366 
0.080752070527955827 
-0.24922557571068671 
-0.31060404445570172 
0.031599495142757547 
0.16474525324024664 
0.0052783410315701933 
-0.038228791911664631 
0.039343092524949282 
-0.0048315482197986261 
-0.22528454210060625 
0.082038631315352994 
-0.14538043564558761 
0.05979494525065604 
0 
0 
-0.29479800064335215 
0 
0.89501861952937811 
0 
0 
0.12519321546174067 
0.11655446804184083 
-0.13766295700106645 
-0.0029819191386309552 
-0.0013031015817275104 
-0.017359896623654735 
-0.087876287385306007 
-0.00013357305977875272 
-0.17234587703101228 
0.028687205330325368 
0.0031645598505948467 
0.018197070733084457 
0.43792898519618928 
0.2326340713136234 
0.076973775605563177 
-0.0094393085495515713 
0.0038174925467541294 
0.018156176666398217 
0.30934820890303788 
0.18053250694077794 
1.8480537783210083 
-0.065133722347832823 
0.0054129429366648798 
-0.13134293749374332 
0.23684869933638614 
-0.011480936056998049 
-0.30404554013693552 
-0.021926974422695172 
0.047280383460753611 
0.0052846332932350026 
0.076963306660359276 
0.017843476698857767 
-0.012564685503329879 
-0.019071364049915846 
0.17959837255116268 
0.027391181895226543 
-0.1255759902920241 
-0.072061998468693877 
-0.48718391710538911 
-0.23006402623478661 
-0.002636891514057522 
0.0063402170072510249 
0.050870520574267171 
0.10148668240902285 
-0.19353971528490904 
0.024969096560909933 
-0.11774327587740469 
0.018979966501299142 
-0.15195065513829287 
-0.13706233673458021 
0.067852183454899823 
0.17901294532331724 
-0.02775847559681812 
-0.032802301320311582 
0.017415283219435335 
0.024586119101442587 
-0.0055094552824843171 
0.1191049702618011 
-0.0097148346546845187 
0.11092007471746348 
-0.078531893916005249 
0 
-0.010045335582689245 
-0.020593909040328911 
0.021446222736854283 
-0.013057884546715956 
-0.049351057147709279 
0.0059992892631379009 
0.27136914206941021 
0.038903749401788576 
-0.61087804879954988 
0.0047564056328531622 
0.0051376486616903656 
-0.027937711414123927 
0.035336824152319757 
-0.027160464971648809 
-0.019828296880318966 
0.0029082725901757572 
0.001388293166203276 
-0.013457144854116705 
0.0042961366668692099 
-0.0029524304753293686 
0.0053554039434498069 
-0.018804520571405046 
-0.00093398342490535449 
-0.045283886481839647 
0.0060981141911209315 
-4.0095683954365232e-05 
-0.13255463887267449 
-0.026526855861543172 
0.018375410780106988 
0.22501563668974156 
0.11768459986597266 
0.001513003613116873 
-0.039722015397349056 
0.02007791647744004 
0.0032322570980960232 
0.053508080441355951 
0.063868074025529215 
-0.021319179582600704 
0.048376348054250312 
-0.019175201159707153 
-0.11861295910884116 
0.12329710472619247 
-0.03148016966613694 
0.052303874945671125 
0.22472488766779336 
-0.015585954953413184 
0.010953870642289389 
-0.028701246717755466 
-0.0023966184829725002 
-0.021345992689016408 
0.0023065072056519119 
0.0070386704399038576 
0.020052945821857168 
0.010201496280871063 
0.0050968493540192155 
0.26676151378372814 
-0.34338093943504722 
0.0061050839119148274 
0.025739802268802833 
0.18198290629169314 
-0.021762635310309475 
-0.0053900357999133799 
-0.03354871486782314 
0.048857823353900806 
-0.10769954392006802 
0.0063868074832029911 
-0.01353939587106856 
-0.07706356876168742 
0.00433170173248107 
-0.050302210819828164 
0.021351135601504909 
-0.018608735169272476 
-0.2500653114703611 
0.00587099123672505 
0.015194506699740915 
0.30281331325435357 
0.0079285405216526737 
0.018249387043437343 
0 
0 
0.0055361845800255081 
-0.009852350703331611 
-0.30126787196799809 
0.0083412545857800488 
0 
0 
0.028918743983234498 
0 
0.12401613938191758 
-0.033868149814678075 
-0.0089689449133669233 
0.00020676097881286985 
-0.099948032815074528 
0.0014157015430440113 
-0.0012853410296095828 
0.20734248650325288 
-0.035544513745554576 
0.10288993017822416 
0.50028388210638142 
0.024974390059942186 
0.020602147041876503 
0 
-0.023589439810738227 
0 
-0.019027665514670694 
-0.014938591328723553 
-0.067504292391291604 
0.0023220924425780155 
0.038329753812787665 
-0.09960258985193321 
0.01185880126940052 
0.0040866678691224064 
0.032958094402916999 
-0.19038718834851884 
-0.034381792228288133 
0.13831020128981852 
-0.27068101282827556 
0.081323183754878764 
0.0080983591642478335 
-0.028816892408742929 
-0.039234999527162494 
-0.16689899392527435 
0.0092485079138237489 
1.0266637210266931 
-0.025336865171318744 
0.51978735317676539 
-0.69013293520570951 
-0.24175608433552442 
-0.057356325824433771 
-0.037656816562077672 
0.016305132204541405 
0.39277957470387304 
0.17201234859874004 
1.9658863084718541e-06 
0.017978482950077534 
-0.0036463241778836837 
0.0013124466056620111 
0.17874124736646138 
0.028151328392762118 
0.0060812419250193123 
0.0070981520231004243 
0.0028843698288173315 
-0.10229687265320006 
0.015669429658479249 
0.023912189123484875 
-0.097704349225077633 
-0.023619188384618371 
-0.012304526555126913 
0.012809707740909908 
-0.014347709947512041 
-0.00056316453707448504 
-0.016016954153342249 
-0.060012806730977884 
0.14087095352852275 
-0.042546379432145856 
